svm_type c_svc
kernel_type rbf
gamma 0.0277778
nr_class 2
total_sv 151
rho -0.95695
label 1 -1
nr_sv 76 75
SV
1.53971783572002 1:10.129834 2:1.5134658 3:-1.1615135 4:0.30834479 5:0.12372147 6:-0.57925616 7:-1.4471099 8:0.51227145 9:0.41033733 10:0.061575725 11:0.09547674 12:-0.08993794 13:0 14:0 15:0 16:0 17:0 18:0 19:0 20:0 21:0 22:0 23:0 24:0 25:0 26:0 27:0 28:0 29:0 30:0 31:0 32:0 33:0 34:0 35:0 36:0 
0.4500170089433921 1:9.7051857 2:0.94333018 3:-1.948983 4:0.49910889 5:0.073882613 6:0.19599389 7:-0.88525085 8:-1.4039341 9:-0.13578728 10:-0.09745072 11:-0.022258665 12:-0.65353131 13:0 14:0 15:0 16:0 17:0 18:0 19:0 20:0 21:0 22:0 23:0 24:0 25:0 26:0 27:0 28:0 29:0 30:0 31:0 32:0 33:0 34:0 35:0 36:0 
4 1:0.2953664 2:0.27298803 3:0.10320165 4:-0.024768664 5:-0.017603137 6:0.032744114 7:0.013708923 8:-0.046016735 9:-0.043869734 10:0.019288877 11:0.024253803 12:-0.093188648 13:0 14:0 15:0 16:0 17:0 18:0 19:0 20:0 21:0 22:0 23:0 24:0 25:0 26:0 27:0 28:0 29:0 30:0 31:0 32:0 33:0 34:0 35:0 36:0 
4 1:0.59333304 2:-0.015397832 3:0.03623283 4:-0.090403663 5:-0.10940405 6:0.11547179 7:-0.19875605 8:0.071242436 9:0.24386096 10:-0.059249587 11:0.014661543 12:-0.14254924 13:0 14:0 15:0 16:0 17:0 18:0 19:0 20:0 21:0 22:0 23:0 24:0 25:0 26:0 27:0 28:0 29:0 30:0 31:0 32:0 33:0 34:0 35:0 36:0 
0.5378254833208855 1:8.2442318 2:-0.02606079 3:-1.3323038 4:0.096018744 5:-0.048683553 6:-0.85561633 7:-3.3650336 8:-1.0567464 9:0.78095112 10:-0.21810591 11:0.030014215 12:-0.43567489 13:0.9157892 14:-0.023173935 15:-0.17603728 16:0.051843148 17:0.021121315 18:-0.11744273 19:-0.27915903 20:-0.19222427 21:0.022242436 22:-0.012276042 23:-0.0065608896 24:-0.0067233591 25:0.15988219 26:0.053771297 27:0.025234447 28:0.0078666682 29:0.010201063 30:-0.007896039 31:-0.0184904 32:-0.0019194887 33:-0.0011427249 34:0.0010266663 35:-0.00038359252 36:-0.012407569 
3.000577092041501 1:7.8615586 2:-2.9959916 3:-0.68850626 4:0.23104825 5:0.21520339 6:-0.27596763 7:0.11396209 8:2.4025404 9:-0.80014099 10:0.18205822 11:-0.18700221 12:-0.57597074 13:0.9157892 14:-0.023173935 15:-0.17603728 16:0.051843148 17:0.021121315 18:-0.11744273 19:-0.27915903 20:-0.19222427 21:0.022242436 22:-0.012276042 23:-0.0065608896 24:-0.0067233591 25:0.15988219 26:0.053771297 27:0.025234447 28:0.0078666682 29:0.010201063 30:-0.007896039 31:-0.0184904 32:-0.0019194887 33:-0.0011427249 34:0.0010266663 35:-0.00038359252 36:-0.012407569 
4 1:8.2484463 2:-3.3308465 3:-0.77379199 4:0.18967716 5:0.18115723 6:-0.024893206 7:0.70371996 8:2.1306115 9:-0.87347394 10:0.27038383 11:-0.18914092 12:-0.46302141 13:0.9157892 14:-0.023173935 15:-0.17603728 16:0.051843148 17:0.021121315 18:-0.11744273 19:-0.27915903 20:-0.19222427 21:0.022242436 22:-0.012276042 23:-0.0065608896 24:-0.0067233591 25:0.15988219 26:0.053771297 27:0.025234447 28:0.0078666682 29:0.010201063 30:-0.007896039 31:-0.0184904 32:-0.0019194887 33:-0.0011427249 34:0.0010266663 35:-0.00038359252 36:-0.012407569 
4 1:8.0407482 2:-3.2357068 3:-0.73240083 4:0.1551288 5:0.14833631 6:-0.18989861 7:1.0736034 8:1.672123 9:-0.54265853 10:0.30036635 11:-0.15347801 12:-0.54364131 13:0.9157892 14:-0.023173935 15:-0.17603728 16:0.051843148 17:0.021121315 18:-0.11744273 19:-0.27915903 20:-0.19222427 21:0.022242436 22:-0.012276042 23:-0.0065608896 24:-0.0067233591 25:0.15988219 26:0.053771297 27:0.025234447 28:0.0078666682 29:0.010201063 30:-0.007896039 31:-0.0184904 32:-0.0019194887 33:-0.0011427249 34:0.0010266663 35:-0.00038359252 36:-0.012407569 
1.078317421200759 1:3.0025653 2:-1.8002709 3:-0.036254673 4:-0.018796274 5:-0.071048958 6:0.85876674 7:2.117897 8:0.91383901 9:-0.74194153 10:0.080938834 11:-0.25686604 12:-0.28188005 13:0.9157892 14:-0.023173935 15:-0.17603728 16:0.051843148 17:0.021121315 18:-0.11744273 19:-0.27915903 20:-0.19222427 21:0.022242436 22:-0.012276042 23:-0.0065608896 24:-0.0067233591 25:0.15988219 26:0.053771297 27:0.025234447 28:0.0078666682 29:0.010201063 30:-0.007896039 31:-0.0184904 32:-0.0019194887 33:-0.0011427249 34:0.0010266663 35:-0.00038359252 36:-0.012407569 
0.7091249118005875 1:0 2:0 3:0 4:-0 5:-0 6:0 7:0 8:0 9:0 10:-0 11:-0 12:0 13:0.56108363 14:0.13385863 15:0.33123749 16:0.064250172 17:-0.0022444937 18:-0.05915937 19:-0.45926843 20:-0.080900891 21:-0.042850728 22:0.015581223 23:-0.0024700828 24:0.034506656 25:-0.010338268 26:0.1853175 27:0.0038318614 28:-0.0033056684 29:0.010776981 30:0.0045018347 31:-0.086157951 32:-0.025394452 33:0.00054568654 34:0.0040316282 35:-0.0013219651 36:0.0013155042 
2.524446001420642 1:1.1927136 2:1.3071966 3:0.84356498 4:0.04164798 5:-0.034458231 6:0.066160045 7:-1.2117912 8:-0.11088748 9:-0.1458639 10:0.07135977 11:-0.047888749 12:0.051700456 13:0.56108363 14:0.13385863 15:0.33123749 16:0.064250172 17:-0.0022444937 18:-0.05915937 19:-0.45926843 20:-0.080900891 21:-0.042850728 22:0.015581223 23:-0.0024700828 24:0.034506656 25:-0.010338268 26:0.1853175 27:0.0038318614 28:-0.0033056684 29:0.010776981 30:0.0045018347 31:-0.086157951 32:-0.025394452 33:0.00054568654 34:0.0040316282 35:-0.0013219651 36:0.0013155042 
4 1:0.4786096 2:0.44880018 3:0.17459006 4:-0.04416916 5:-0.034788001 6:0.0824914 7:0.11095848 8:0.035940295 9:-0.013665799 10:0.011445418 11:0.017132591 12:-0.070316527 13:0.56108363 14:0.13385863 15:0.33123749 16:0.064250172 17:-0.0022444937 18:-0.05915937 19:-0.45926843 20:-0.080900891 21:-0.042850728 22:0.015581223 23:-0.0024700828 24:0.034506656 25:-0.010338268 26:0.1853175 27:0.0038318614 28:-0.0033056684 29:0.010776981 30:0.0045018347 31:-0.086157951 32:-0.025394452 33:0.00054568654 34:0.0040316282 35:-0.0013219651 36:0.0013155042 
2.23464379349822 1:3.9844818 2:0.66508695 3:1.3810242 4:0.47715448 5:0.65374503 6:0.067344605 7:-0.9525985 8:-0.65549098 9:0.70472469 10:-0.025991838 11:0.024193327 12:-0.1869831 13:0.56108363 14:0.13385863 15:0.33123749 16:0.064250172 17:-0.0022444937 18:-0.05915937 19:-0.45926843 20:-0.080900891 21:-0.042850728 22:0.015581223 23:-0.0024700828 24:0.034506656 25:-0.010338268 26:0.1853175 27:0.0038318614 28:-0.0033056684 29:0.010776981 30:0.0045018347 31:-0.086157951 32:-0.025394452 33:0.00054568654 34:0.0040316282 35:-0.0013219651 36:0.0013155042 
4 1:8.6158479 2:-3.1971386 3:-0.54394908 4:-0.19538808 5:0.11146029 6:-1.0542176 7:-1.6736089 8:-0.00611759 9:0.22635337 10:0.03184474 11:0.13412536 12:-0.75483172 13:0.56108363 14:0.13385863 15:0.33123749 16:0.064250172 17:-0.0022444937 18:-0.05915937 19:-0.45926843 20:-0.080900891 21:-0.042850728 22:0.015581223 23:-0.0024700828 24:0.034506656 25:-0.010338268 26:0.1853175 27:0.0038318614 28:-0.0033056684 29:0.010776981 30:0.0045018347 31:-0.086157951 32:-0.025394452 33:0.00054568654 34:0.0040316282 35:-0.0013219651 36:0.0013155042 
4 1:9.1975084 2:-2.4677505 3:-0.046624898 4:-0.46070891 5:0.076954552 6:-1.1553088 7:-0.97230794 8:-1.1629718 9:0.0092698486 10:-0.021794261 11:0.087162534 12:-0.62790005 13:0.56108363 14:0.13385863 15:0.33123749 16:0.064250172 17:-0.0022444937 18:-0.05915937 19:-0.45926843 20:-0.080900891 21:-0.042850728 22:0.015581223 23:-0.0024700828 24:0.034506656 25:-0.010338268 26:0.1853175 27:0.0038318614 28:-0.0033056684 29:0.010776981 30:0.0045018347 31:-0.086157951 32:-0.025394452 33:0.00054568654 34:0.0040316282 35:-0.0013219651 36:0.0013155042 
4 1:0.068868891 2:0.20377499 3:0.38892095 4:0.0017408858 5:-0.042352857 6:0.32911857 7:-0.02195992 8:0.37510332 9:0.26334644 10:-0.00075395435 11:-0.04482013 12:0.21367961 13:-0.017181714 14:-0.014229531 15:-0.0063232064 16:0.002130154 17:0.0015842117 18:-0.0070747023 19:-0.012370279 20:-0.013266067 21:-0.0060614784 22:0.0013014781 23:0.0017868567 24:-0.0039762993 25:0.0035816486 26:0.0017022144 27:0.00085724377 28:-0.00043085931 29:-8.9367596e-05 30:0.0015449136 31:0.0012165817 32:0.0020091213 33:0.0012019804 34:-5.5418106e-05 35:-0.00042085227 36:0.0002390821 
4 1:-0.08061839 2:0.25884332 3:0.49140189 4:0.034107336 5:-0.074959681 6:0.35680407 7:-0.22773481 8:0.70779917 9:0.22387334 10:0.010162904 11:-0.081605822 12:0.15266893 13:-0.017181714 14:-0.014229531 15:-0.0063232064 16:0.002130154 17:0.0015842117 18:-0.0070747023 19:-0.012370279 20:-0.013266067 21:-0.0060614784 22:0.0013014781 23:0.0017868567 24:-0.0039762993 25:0.0035816486 26:0.0017022144 27:0.00085724377 28:-0.00043085931 29:-8.9367596e-05 30:0.0015449136 31:0.0012165817 32:0.0020091213 33:0.0012019804 34:-5.5418106e-05 35:-0.00042085227 36:0.0002390821 
1.241305394086101 1:3.3356352 2:1.5295522 3:0.4773818 4:-0.2798697 5:-0.35896126 6:0.71955206 7:-0.14731662 8:-0.86163515 9:-0.11267328 10:-0.043123631 11:0.0039553118 12:-0.3646333 13:-0.017181714 14:-0.014229531 15:-0.0063232064 16:0.002130154 17:0.0015842117 18:-0.0070747023 19:-0.012370279 20:-0.013266067 21:-0.0060614784 22:0.0013014781 23:0.0017868567 24:-0.0039762993 25:0.0035816486 26:0.0017022144 27:0.00085724377 28:-0.00043085931 29:-8.9367596e-05 30:0.0015449136 31:0.0012165817 32:0.0020091213 33:0.0012019804 34:-5.5418106e-05 35:-0.00042085227 36:0.0002390821 
1.966055102334221 1:0 2:0 3:0 4:-0 5:-0 6:0 7:0 8:0 9:0 10:-0 11:-0 12:0 13:0.60011761 14:0.3303019 15:0.053599084 16:-0.011487849 17:-0.019903874 18:0.073341473 19:0.069963465 20:-0.081224559 21:-0.080968821 22:0.026811374 23:0.021881335 24:-0.047592079 25:0.092230143 26:0.044480456 27:0.0071942115 28:-0.0028743656 29:-0.0047998528 30:0.014481668 31:0.0093569815 32:-0.015916525 33:-0.011132677 34:0.0024068439 35:0.00061982707 36:0.0028876927 
3.224649179811373 1:0 2:0 3:0 4:-0 5:-0 6:0 7:0 8:0 9:0 10:-0 11:-0 12:0 13:-0.028487783 14:-0.028304669 15:-0.012179158 16:0.0035868536 17:0.0035163153 18:-0.011472516 19:-0.025604738 20:-0.02472408 21:-0.010324992 22:0.0029460257 23:0.00279187 24:-0.0087806839 25:0.11820123 26:0.085823553 27:0.020056988 28:-0.0017242836 29:0.00043445275 30:-0.0011522169 31:0.0087840632 32:0.021184022 33:0.011668262 34:-0.0030471022 35:-0.0018437907 36:0.0021390865 
4 1:0.24264133 2:-0.25197245 3:0.39955975 4:-0.10608895 5:0.014835828 6:0.12203035 7:0.81750128 8:0.41498088 9:0.019993208 10:-0.040653367 11:-0.086419014 12:0.13897856 13:-0.028882532 14:-0.02869688 15:-0.012347922 16:0.0036365559 17:0.0035650401 18:-0.011631489 19:-0.025959537 20:-0.025066676 21:-0.010468063 22:0.0029868481 23:0.0028305563 24:-0.008902356 25:0.088208422 26:0.081623597 27:0.03150074 28:-0.0081112225 29:-0.0068481485 30:0.018977688 31:0.035015938 32:0.026480264 33:0.0079092624 34:-0.0014157171 35:-0.00072532415 36:0.0012649048 
4 1:0.18478469 2:-0.52974195 3:0.48849119 4:-0.11807391 5:-0.0032762832 6:0.16025981 7:0.4173156 8:0.62573754 9:0.29199728 10:0.015258833 11:-0.033913352 12:0.40549672 13:-0.028882532 14:-0.02869688 15:-0.012347922 16:0.0036365559 17:0.0035650401 18:-0.011631489 19:-0.025959537 20:-0.025066676 21:-0.010468063 22:0.0029868481 23:0.0028305563 24:-0.008902356 25:0.088208422 26:0.081623597 27:0.03150074 28:-0.0081112225 29:-0.0068481485 30:0.018977688 31:0.035015938 32:0.026480264 33:0.0079092624 34:-0.0014157171 35:-0.00072532415 36:0.0012649048 
4 1:-2.1408307 2:0.46031278 3:0.56950936 4:0.29531779 5:-0.2649511 6:-0.39210655 7:-0.40911966 8:1.2000309 9:-0.51773459 10:-0.077004981 11:-0.014563066 12:-0.21955471 13:0.005759216 14:0.0057221968 15:0.0024621924 16:-0.00072513416 17:-0.00071087382 18:0.0023193346 19:0.0051763668 20:0.0049983292 21:0.002087346 22:-0.00059558156 23:-0.00056441676 24:0.0017751418 25:-0.00037257957 26:-0.00037018469 27:-0.00015928602 28:4.6910928e-05 29:4.5988388e-05 30:-0.00015004415 31:-0.00033487345 32:-0.0003233557 33:-0.00013503617 34:3.8529813e-05 35:3.6513677e-05 36:-0.00011483882 
4 1:-4.8497083 2:0.063847339 3:1.2434042 4:0.48622489 5:-0.44252187 6:-0.65023671 7:-0.7622849 8:1.1374393 9:-0.082929942 10:0.0096699689 11:0.020795993 12:-0.016442464 13:0.005759216 14:0.0057221968 15:0.0024621924 16:-0.00072513416 17:-0.00071087382 18:0.0023193346 19:0.0051763668 20:0.0049983292 21:0.002087346 22:-0.00059558156 23:-0.00056441676 24:0.0017751418 25:-0.00037257957 26:-0.00037018469 27:-0.00015928602 28:4.6910928e-05 29:4.5988388e-05 30:-0.00015004415 31:-0.00033487345 32:-0.0003233557 33:-0.00013503617 34:3.8529813e-05 35:3.6513677e-05 36:-0.00011483882 
4 1:-2.2315383 2:-2.0338923 3:0.097051048 4:0.16565452 5:-0.4208902 6:-0.35096074 7:-1.0033577 8:0.7105026 9:-0.28706239 10:0.02143678 11:-0.12185527 12:-0.32362988 13:0.005759216 14:0.0057221968 15:0.0024621924 16:-0.00072513416 17:-0.00071087382 18:0.0023193346 19:0.0051763668 20:0.0049983292 21:0.002087346 22:-0.00059558156 23:-0.00056441676 24:0.0017751418 25:-0.00037257957 26:-0.00037018469 27:-0.00015928602 28:4.6910928e-05 29:4.5988388e-05 30:-0.00015004415 31:-0.00033487345 32:-0.0003233557 33:-0.00013503617 34:3.8529813e-05 35:3.6513677e-05 36:-0.00011483882 
1.782034310054196 1:-0.42223771 2:-4.3977647 3:-0.8862822 4:0.26674793 5:-0.27420838 6:-0.62886751 7:0.75639238 8:2.5616578 9:-0.055772572 10:0.084694224 11:-0.026616775 12:-0.62203756 13:0.005759216 14:0.0057221968 15:0.0024621924 16:-0.00072513416 17:-0.00071087382 18:0.0023193346 19:0.0051763668 20:0.0049983292 21:0.002087346 22:-0.00059558156 23:-0.00056441676 24:0.0017751418 25:-0.00037257957 26:-0.00037018469 27:-0.00015928602 28:4.6910928e-05 29:4.5988388e-05 30:-0.00015004415 31:-0.00033487345 32:-0.0003233557 33:-0.00013503617 34:3.8529813e-05 35:3.6513677e-05 36:-0.00011483882 
0.3439343722791685 1:4.6262193 2:-8.1921998 3:-3.1598537 4:0.31055489 5:-0.13891739 6:-0.077712253 7:1.3654495 8:1.2907727 9:-0.0017638413 10:0.15666644 11:-0.074749441 12:0.01869254 13:0.005759216 14:0.0057221968 15:0.0024621924 16:-0.00072513416 17:-0.00071087382 18:0.0023193346 19:0.0051763668 20:0.0049983292 21:0.002087346 22:-0.00059558156 23:-0.00056441676 24:0.0017751418 25:-0.00037257957 26:-0.00037018469 27:-0.00015928602 28:4.6910928e-05 29:4.5988388e-05 30:-0.00015004415 31:-0.00033487345 32:-0.0003233557 33:-0.00013503617 34:3.8529813e-05 35:3.6513677e-05 36:-0.00011483882 
4 1:-0.24964046 2:-0.55069705 3:0.23594635 4:0.10001584 5:-0.061556429 6:-0.55488677 7:-1.397032 8:1.4809987 9:-0.060940059 10:-0.017363477 11:-0.10377462 12:-0.040595315 13:0.005759216 14:0.0057221968 15:0.0024621924 16:-0.00072513416 17:-0.00071087382 18:0.0023193346 19:0.0051763668 20:0.0049983292 21:0.002087346 22:-0.00059558156 23:-0.00056441676 24:0.0017751418 25:-0.00037257957 26:-0.00037018469 27:-0.00015928602 28:4.6910928e-05 29:4.5988388e-05 30:-0.00015004415 31:-0.00033487345 32:-0.0003233557 33:-0.00013503617 34:3.8529813e-05 35:3.6513677e-05 36:-0.00011483882 
2.521050856356858 1:0.16184502 2:-0.98629374 3:-0.047686832 4:0.066447047 5:-0.061100804 6:-0.82628684 7:-1.5507057 8:1.7458096 9:0.43727638 10:-0.054745944 11:-0.024508783 12:-0.06225545 13:0.005759216 14:0.0057221968 15:0.0024621924 16:-0.00072513416 17:-0.00071087382 18:0.0023193346 19:0.0051763668 20:0.0049983292 21:0.002087346 22:-0.00059558156 23:-0.00056441676 24:0.0017751418 25:-0.00037257957 26:-0.00037018469 27:-0.00015928602 28:4.6910928e-05 29:4.5988388e-05 30:-0.00015004415 31:-0.00033487345 32:-0.0003233557 33:-0.00013503617 34:3.8529813e-05 35:3.6513677e-05 36:-0.00011483882 
4 1:-0.013460327 2:0.0023368345 3:0.0043263644 4:0.0022493365 5:-0.0020885337 6:-0.0029800516 7:-0.0057547901 8:0.015504613 9:-0.0076376203 10:-0.0014176133 11:-0.00015230325 12:-0.0055064174 13:-0.32928939 14:1.3570417 15:0.30899191 16:0.0078315156 17:0.027042229 18:-0.0031241134 19:-0.43068448 20:-0.13675429 21:0.1399985 22:-0.012106882 23:0.026595406 24:-0.018300536 25:0.027910087 26:-0.27108029 27:-0.051218032 28:0.0052522657 29:-0.0043127797 30:-0.017278538 31:0.068865899 32:0.028774088 33:0.0096149403 34:0.0021448974 35:0.0004200328 36:0.0063870992 
4 1:-0.012074494 2:0.0020962415 3:0.0038809356 4:0.002017752 5:-0.0018735049 6:-0.0026732349 7:-0.0051622952 8:0.013908307 9:-0.0068512751 10:-0.0012716603 11:-0.00013662259 12:-0.0049394941 13:-0.30867909 14:1.0150326 15:0.26724111 16:-0.0018767726 17:0.018504498 18:-0.020928818 19:-0.41698039 20:-0.14105988 21:0.1450846 22:-0.01406244 23:0.026986259 24:-0.02227933 25:0.06028617 26:-0.41885464 27:-0.086895459 28:0.0051692678 29:-0.0072320036 30:-0.012482485 31:0.1367521 32:0.034423604 33:-0.01120865 34:0.0039336409 35:-0.0025963645 36:0.0076961693 
4 1:-0.093189501 2:-0.22920729 3:0.03388122 4:-0.016107343 5:-0.011261849 6:-0.11891771 7:-0.010901471 8:0.31643997 9:-0.065465413 10:0.016077073 11:-0.006286901 12:0.039431074 13:-0.30867909 14:1.0150326 15:0.26724111 16:-0.0018767726 17:0.018504498 18:-0.020928818 19:-0.41698039 20:-0.14105988 21:0.1450846 22:-0.01406244 23:0.026986259 24:-0.02227933 25:0.06028617 26:-0.41885464 27:-0.086895459 28:0.0051692678 29:-0.0072320036 30:-0.012482485 31:0.1367521 32:0.034423604 33:-0.01120865 34:0.0039336409 35:-0.0025963645 36:0.0076961693 
4 1:-0.13593645 2:-0.3132723 3:0.050141907 4:-0.016063638 5:-0.021301115 6:-0.13872765 7:-0.13578596 8:0.44877528 9:-0.04334981 10:0.029092112 11:-0.0046698455 12:0.039324082 13:-0.30867909 14:1.0150326 15:0.26724111 16:-0.0018767726 17:0.018504498 18:-0.020928818 19:-0.41698039 20:-0.14105988 21:0.1450846 22:-0.01406244 23:0.026986259 24:-0.02227933 25:0.06028617 26:-0.41885464 27:-0.086895459 28:0.0051692678 29:-0.0072320036 30:-0.012482485 31:0.1367521 32:0.034423604 33:-0.01120865 34:0.0039336409 35:-0.0025963645 36:0.0076961693 
4 1:0.014370889 2:-0.38997286 3:-0.030536751 4:-0.038920489 5:-0.018865469 6:-0.17917271 7:-0.18478075 8:0.43494567 9:0.09119982 10:0.034277331 11:0.034681955 12:0.095278075 13:-0.30867909 14:1.0150326 15:0.26724111 16:-0.0018767726 17:0.018504498 18:-0.020928818 19:-0.41698039 20:-0.14105988 21:0.1450846 22:-0.01406244 23:0.026986259 24:-0.02227933 25:0.06028617 26:-0.41885464 27:-0.086895459 28:0.0051692678 29:-0.0072320036 30:-0.012482485 31:0.1367521 32:0.034423604 33:-0.01120865 34:0.0039336409 35:-0.0025963645 36:0.0076961693 
4 1:0.08535489 2:-0.4982713 3:-0.057087379 4:-0.031328163 5:-0.015811199 6:-0.21591011 7:-0.28963941 8:0.62463727 9:0.1817442 10:0.035591316 11:0.038104108 12:0.04572632 13:-0.30867909 14:1.0150326 15:0.26724111 16:-0.0018767726 17:0.018504498 18:-0.020928818 19:-0.41698039 20:-0.14105988 21:0.1450846 22:-0.01406244 23:0.026986259 24:-0.02227933 25:0.06028617 26:-0.41885464 27:-0.086895459 28:0.0051692678 29:-0.0072320036 30:-0.012482485 31:0.1367521 32:0.034423604 33:-0.01120865 34:0.0039336409 35:-0.0025963645 36:0.0076961693 
4 1:-0.13664364 2:-1.3727623 3:-0.82932326 4:-0.0097303553 5:-0.21062278 6:-0.27410847 7:-0.2577957 8:-0.64189991 9:0.23550855 10:0.0065923998 11:-0.22874731 12:-0.1695088 13:-0.30867909 14:1.0150326 15:0.26724111 16:-0.0018767726 17:0.018504498 18:-0.020928818 19:-0.41698039 20:-0.14105988 21:0.1450846 22:-0.01406244 23:0.026986259 24:-0.02227933 25:0.06028617 26:-0.41885464 27:-0.086895459 28:0.0051692678 29:-0.0072320036 30:-0.012482485 31:0.1367521 32:0.034423604 33:-0.01120865 34:0.0039336409 35:-0.0025963645 36:0.0076961693 
4 1:-1.459325 2:-0.56182451 3:-0.38074378 4:0.1209286 5:-0.16527234 6:-0.14022067 7:0.92168112 8:-1.5034327 9:0.19053777 10:-0.0032453143 11:-0.13055953 12:-0.1106087 13:-0.30867909 14:1.0150326 15:0.26724111 16:-0.0018767726 17:0.018504498 18:-0.020928818 19:-0.41698039 20:-0.14105988 21:0.1450846 22:-0.01406244 23:0.026986259 24:-0.02227933 25:0.06028617 26:-0.41885464 27:-0.086895459 28:0.0051692678 29:-0.0072320036 30:-0.012482485 31:0.1367521 32:0.034423604 33:-0.01120865 34:0.0039336409 35:-0.0025963645 36:0.0076961693 
4 1:-1.3554839 2:-0.81100354 3:-0.50867953 4:0.02587319 5:-0.22452856 6:-0.17358249 7:0.5609093 8:-1.2755412 9:0.30941196 10:0.048921278 11:-0.049202403 12:-0.25393223 13:-0.30867909 14:1.0150326 15:0.26724111 16:-0.0018767726 17:0.018504498 18:-0.020928818 19:-0.41698039 20:-0.14105988 21:0.1450846 22:-0.01406244 23:0.026986259 24:-0.02227933 25:0.06028617 26:-0.41885464 27:-0.086895459 28:0.0051692678 29:-0.0072320036 30:-0.012482485 31:0.1367521 32:0.034423604 33:-0.01120865 34:0.0039336409 35:-0.0025963645 36:0.0076961693 
3.306839921263633 1:1.8487288 2:-5.1357205 3:-1.4971003 4:-0.10055943 5:-0.23323666 6:0.25656524 7:0.24376154 8:-0.21405691 9:-0.3316779 10:-0.074124847 11:-0.060883843 12:-0.31702218 13:-0.30867909 14:1.0150326 15:0.26724111 16:-0.0018767726 17:0.018504498 18:-0.020928818 19:-0.41698039 20:-0.14105988 21:0.1450846 22:-0.01406244 23:0.026986259 24:-0.02227933 25:0.06028617 26:-0.41885464 27:-0.086895459 28:0.0051692678 29:-0.0072320036 30:-0.012482485 31:0.1367521 32:0.034423604 33:-0.01120865 34:0.0039336409 35:-0.0025963645 36:0.0076961693 
4 1:1.3718944 2:-1.845797 3:-1.0392079 4:0.10673399 5:-0.13918262 6:0.46088377 7:0.19181011 8:-0.33730948 9:-0.23945378 10:-0.046969397 11:-0.086282303 12:-0.1004082 13:-0.30867909 14:1.0150326 15:0.26724111 16:-0.0018767726 17:0.018504498 18:-0.020928818 19:-0.41698039 20:-0.14105988 21:0.1450846 22:-0.01406244 23:0.026986259 24:-0.02227933 25:0.06028617 26:-0.41885464 27:-0.086895459 28:0.0051692678 29:-0.0072320036 30:-0.012482485 31:0.1367521 32:0.034423604 33:-0.01120865 34:0.0039336409 35:-0.0025963645 36:0.0076961693 
4 1:-0.66678197 2:0.19752147 3:0.13926734 4:0.083531802 5:-0.083354603 6:-0.15769372 7:-0.012905892 8:0.282297 9:-0.14387387 10:-0.02371314 11:-0.0043606124 12:-0.074097027 13:-0.30867909 14:1.0150326 15:0.26724111 16:-0.0018767726 17:0.018504498 18:-0.020928818 19:-0.41698039 20:-0.14105988 21:0.1450846 22:-0.01406244 23:0.026986259 24:-0.02227933 25:0.06028617 26:-0.41885464 27:-0.086895459 28:0.0051692678 29:-0.0072320036 30:-0.012482485 31:0.1367521 32:0.034423604 33:-0.01120865 34:0.0039336409 35:-0.0025963645 36:0.0076961693 
4 1:-0.5300514 2:0.23844557 3:0.041958745 4:0.043300491 5:-0.051001854 6:-0.12693225 7:0.12517256 8:-0.00068835811 9:-0.0086288527 10:0.0064673012 11:-0.017888939 12:-0.071109952 13:-0.30867909 14:1.0150326 15:0.26724111 16:-0.0018767726 17:0.018504498 18:-0.020928818 19:-0.41698039 20:-0.14105988 21:0.1450846 22:-0.01406244 23:0.026986259 24:-0.02227933 25:0.06028617 26:-0.41885464 27:-0.086895459 28:0.0051692678 29:-0.0072320036 30:-0.012482485 31:0.1367521 32:0.034423604 33:-0.01120865 34:0.0039336409 35:-0.0025963645 36:0.0076961693 
4 1:-1.0634555 2:-1.2128907 3:0.065835166 4:0.19524382 5:-0.11880182 6:0.15539988 7:0.87158008 8:-0.11829353 9:-0.31245923 10:0.010491053 11:0.047865677 12:0.15444965 13:-0.30867909 14:1.0150326 15:0.26724111 16:-0.0018767726 17:0.018504498 18:-0.020928818 19:-0.41698039 20:-0.14105988 21:0.1450846 22:-0.01406244 23:0.026986259 24:-0.02227933 25:0.06028617 26:-0.41885464 27:-0.086895459 28:0.0051692678 29:-0.0072320036 30:-0.012482485 31:0.1367521 32:0.034423604 33:-0.01120865 34:0.0039336409 35:-0.0025963645 36:0.0076961693 
4 1:0.28778049 2:-0.23479359 3:-0.44910492 4:0.10332932 5:-0.037465358 6:0.21440281 7:0.65585647 8:-0.0010001097 9:-0.081630447 10:0.059461867 11:-0.020506259 12:-0.081271169 13:-0.30867909 14:1.0150326 15:0.26724111 16:-0.0018767726 17:0.018504498 18:-0.020928818 19:-0.41698039 20:-0.14105988 21:0.1450846 22:-0.01406244 23:0.026986259 24:-0.02227933 25:0.06028617 26:-0.41885464 27:-0.086895459 28:0.0051692678 29:-0.0072320036 30:-0.012482485 31:0.1367521 32:0.034423604 33:-0.01120865 34:0.0039336409 35:-0.0025963645 36:0.0076961693 
4 1:-0.24855498 2:-0.7925322 3:-0.31843911 4:0.058683627 5:-0.029168527 6:-0.35028644 7:1.1091306 8:0.37322229 9:-0.12003836 10:0.081558324 11:-0.046799359 12:0.15987702 13:-0.30867909 14:1.0150326 15:0.26724111 16:-0.0018767726 17:0.018504498 18:-0.020928818 19:-0.41698039 20:-0.14105988 21:0.1450846 22:-0.01406244 23:0.026986259 24:-0.02227933 25:0.06028617 26:-0.41885464 27:-0.086895459 28:0.0051692678 29:-0.0072320036 30:-0.012482485 31:0.1367521 32:0.034423604 33:-0.01120865 34:0.0039336409 35:-0.0025963645 36:0.0076961693 
4 1:-0.34783988 2:0.053501249 3:0.1284591 4:0.081379112 5:-0.045357777 6:-0.062636766 7:-0.21614584 8:0.51980769 9:-0.12739447 10:-0.025189912 11:-0.018325645 12:-0.16465134 13:-0.30867909 14:1.0150326 15:0.26724111 16:-0.0018767726 17:0.018504498 18:-0.020928818 19:-0.41698039 20:-0.14105988 21:0.1450846 22:-0.01406244 23:0.026986259 24:-0.02227933 25:0.06028617 26:-0.41885464 27:-0.086895459 28:0.0051692678 29:-0.0072320036 30:-0.012482485 31:0.1367521 32:0.034423604 33:-0.01120865 34:0.0039336409 35:-0.0025963645 36:0.0076961693 
4 1:-0.10573389 2:0.018356361 3:0.033984565 4:0.017669044 5:-0.016405902 6:-0.023408975 7:-0.04520517 8:0.12179222 9:-0.059995225 10:-0.011135671 11:-0.0011963763 12:-0.043254146 13:-0.30867909 14:1.0150326 15:0.26724111 16:-0.0018767726 17:0.018504498 18:-0.020928818 19:-0.41698039 20:-0.14105988 21:0.1450846 22:-0.01406244 23:0.026986259 24:-0.02227933 25:0.06028617 26:-0.41885464 27:-0.086895459 28:0.0051692678 29:-0.0072320036 30:-0.012482485 31:0.1367521 32:0.034423604 33:-0.01120865 34:0.0039336409 35:-0.0025963645 36:0.0076961693 
4 1:0.023075172 2:0.031729785 3:-0.0052150725 4:0.034236427 5:0.0042387734 6:-0.040463454 7:8.7053489e-05 8:0.23599072 9:0.017346523 10:-0.019248503 11:-0.0015376308 12:-0.083811405 13:-0.30867909 14:1.0150326 15:0.26724111 16:-0.0018767726 17:0.018504498 18:-0.020928818 19:-0.41698039 20:-0.14105988 21:0.1450846 22:-0.01406244 23:0.026986259 24:-0.02227933 25:0.06028617 26:-0.41885464 27:-0.086895459 28:0.0051692678 29:-0.0072320036 30:-0.012482485 31:0.1367521 32:0.034423604 33:-0.01120865 34:0.0039336409 35:-0.0025963645 36:0.0076961693 
3.317352327981863 1:0.92779396 2:-0.48551919 3:-0.35580728 4:0.16873299 5:0.15612268 6:-0.028967554 7:1.3536041 8:1.2638363 9:0.10236913 10:-0.021203275 11:0.051223514 12:-0.47514734 13:-0.30867909 14:1.0150326 15:0.26724111 16:-0.0018767726 17:0.018504498 18:-0.020928818 19:-0.41698039 20:-0.14105988 21:0.1450846 22:-0.01406244 23:0.026986259 24:-0.02227933 25:0.06028617 26:-0.41885464 27:-0.086895459 28:0.0051692678 29:-0.0072320036 30:-0.012482485 31:0.1367521 32:0.034423604 33:-0.01120865 34:0.0039336409 35:-0.0025963645 36:0.0076961693 
4 1:-0.10953802 2:0.14639823 3:0.004662599 4:0.074962562 5:-0.0055496267 6:-0.112502 7:-0.014575311 8:0.38187884 9:0.013933949 10:-0.026583432 11:-0.019415606 12:-0.14825239 13:-0.30867909 14:1.0150326 15:0.26724111 16:-0.0018767726 17:0.018504498 18:-0.020928818 19:-0.41698039 20:-0.14105988 21:0.1450846 22:-0.01406244 23:0.026986259 24:-0.02227933 25:0.06028617 26:-0.41885464 27:-0.086895459 28:0.0051692678 29:-0.0072320036 30:-0.012482485 31:0.1367521 32:0.034423604 33:-0.01120865 34:0.0039336409 35:-0.0025963645 36:0.0076961693 
4 1:-0.33624708 2:-0.40199992 3:-0.28723936 4:0.3133106 5:-0.15452875 6:0.1752038 7:0.31053236 8:0.79310528 9:-0.28524724 10:0.049050697 11:-0.036786057 12:-0.0040096414 13:-0.30867909 14:1.0150326 15:0.26724111 16:-0.0018767726 17:0.018504498 18:-0.020928818 19:-0.41698039 20:-0.14105988 21:0.1450846 22:-0.01406244 23:0.026986259 24:-0.02227933 25:0.06028617 26:-0.41885464 27:-0.086895459 28:0.0051692678 29:-0.0072320036 30:-0.012482485 31:0.1367521 32:0.034423604 33:-0.01120865 34:0.0039336409 35:-0.0025963645 36:0.0076961693 
4 1:-0.30633559 2:0.047040825 3:0.09866166 4:0.048489075 5:-0.042055477 6:-0.051652712 7:-0.12209005 8:0.27289737 9:-0.11707758 10:-0.017702755 11:-0.0047939544 12:-0.067161936 13:-0.30867909 14:1.0150326 15:0.26724111 16:-0.0018767726 17:0.018504498 18:-0.020928818 19:-0.41698039 20:-0.14105988 21:0.1450846 22:-0.01406244 23:0.026986259 24:-0.02227933 25:0.06028617 26:-0.41885464 27:-0.086895459 28:0.0051692678 29:-0.0072320036 30:-0.012482485 31:0.1367521 32:0.034423604 33:-0.01120865 34:0.0039336409 35:-0.0025963645 36:0.0076961693 
4 1:-0.54732261 2:0.27316158 3:0.024327863 4:0.040856319 5:-0.054705014 6:-0.16140029 7:0.22854879 8:-0.081848926 9:-0.0012644221 10:-0.001497464 11:-0.0027971482 12:-0.018418818 13:-0.30867909 14:1.0150326 15:0.26724111 16:-0.0018767726 17:0.018504498 18:-0.020928818 19:-0.41698039 20:-0.14105988 21:0.1450846 22:-0.01406244 23:0.026986259 24:-0.02227933 25:0.06028617 26:-0.41885464 27:-0.086895459 28:0.0051692678 29:-0.0072320036 30:-0.012482485 31:0.1367521 32:0.034423604 33:-0.01120865 34:0.0039336409 35:-0.0025963645 36:0.0076961693 
4 1:-0.90661104 2:-1.1686761 3:0.30805909 4:0.036168413 5:0.0034994632 6:-0.29524156 7:0.16310762 8:1.0375858 9:-0.10944233 10:0.044345464 11:-0.094142738 12:-0.23454895 13:-0.30867909 14:1.0150326 15:0.26724111 16:-0.0018767726 17:0.018504498 18:-0.020928818 19:-0.41698039 20:-0.14105988 21:0.1450846 22:-0.01406244 23:0.026986259 24:-0.02227933 25:0.06028617 26:-0.41885464 27:-0.086895459 28:0.0051692678 29:-0.0072320036 30:-0.012482485 31:0.1367521 32:0.034423604 33:-0.01120865 34:0.0039336409 35:-0.0025963645 36:0.0076961693 
4 1:-0.29286059 2:0.30300385 3:-0.13791275 4:0.17409447 5:-0.0097836292 6:-0.12706348 7:0.45219681 8:0.53271183 9:0.16580997 10:0.018215526 11:-0.024121319 12:-0.26113002 13:-0.30867909 14:1.0150326 15:0.26724111 16:-0.0018767726 17:0.018504498 18:-0.020928818 19:-0.41698039 20:-0.14105988 21:0.1450846 22:-0.01406244 23:0.026986259 24:-0.02227933 25:0.06028617 26:-0.41885464 27:-0.086895459 28:0.0051692678 29:-0.0072320036 30:-0.012482485 31:0.1367521 32:0.034423604 33:-0.01120865 34:0.0039336409 35:-0.0025963645 36:0.0076961693 
4 1:-0.86203429 2:-0.41310586 3:0.37541282 4:0.072747831 5:-0.051720346 6:-0.16541716 7:-0.13948872 8:0.90706521 9:-0.38822899 10:0.0025162814 11:-0.094846968 12:-0.24268677 13:-0.30867909 14:1.0150326 15:0.26724111 16:-0.0018767726 17:0.018504498 18:-0.020928818 19:-0.41698039 20:-0.14105988 21:0.1450846 22:-0.01406244 23:0.026986259 24:-0.02227933 25:0.06028617 26:-0.41885464 27:-0.086895459 28:0.0051692678 29:-0.0072320036 30:-0.012482485 31:0.1367521 32:0.034423604 33:-0.01120865 34:0.0039336409 35:-0.0025963645 36:0.0076961693 
4 1:-1.1653821 2:0.51812653 3:0.091374392 4:0.090785105 5:-0.10156971 6:-0.22765922 7:0.15887029 8:0.061079683 9:-0.0059149776 10:0.030838791 11:-0.064617996 12:-0.24793343 13:-0.30867909 14:1.0150326 15:0.26724111 16:-0.0018767726 17:0.018504498 18:-0.020928818 19:-0.41698039 20:-0.14105988 21:0.1450846 22:-0.01406244 23:0.026986259 24:-0.02227933 25:0.06028617 26:-0.41885464 27:-0.086895459 28:0.0051692678 29:-0.0072320036 30:-0.012482485 31:0.1367521 32:0.034423604 33:-0.01120865 34:0.0039336409 35:-0.0025963645 36:0.0076961693 
4 1:-1.8327689 2:0.45408486 3:0.098220979 4:0.18254212 5:-0.2360078 6:-0.26746281 7:-0.023666495 8:-0.078734662 9:-0.13238561 10:-0.010624423 11:-0.10589486 12:-0.30651252 13:-0.30867909 14:1.0150326 15:0.26724111 16:-0.0018767726 17:0.018504498 18:-0.020928818 19:-0.41698039 20:-0.14105988 21:0.1450846 22:-0.01406244 23:0.026986259 24:-0.02227933 25:0.06028617 26:-0.41885464 27:-0.086895459 28:0.0051692678 29:-0.0072320036 30:-0.012482485 31:0.1367521 32:0.034423604 33:-0.01120865 34:0.0039336409 35:-0.0025963645 36:0.0076961693 
0.117568212316014 1:-2.1753993 2:0.69382833 3:0.28922346 4:0.16073906 5:-0.13678539 6:-0.25732829 7:0.28659841 8:-0.26965192 9:0.19042466 10:0.079066635 11:-0.082095691 12:-0.20275783 13:-0.30867909 14:1.0150326 15:0.26724111 16:-0.0018767726 17:0.018504498 18:-0.020928818 19:-0.41698039 20:-0.14105988 21:0.1450846 22:-0.01406244 23:0.026986259 24:-0.02227933 25:0.06028617 26:-0.41885464 27:-0.086895459 28:0.0051692678 29:-0.0072320036 30:-0.012482485 31:0.1367521 32:0.034423604 33:-0.01120865 34:0.0039336409 35:-0.0025963645 36:0.0076961693 
4 1:-4.3493247 2:-2.6671606 3:0.8975931 4:0.1098945 5:-0.030295704 6:-0.75678924 7:1.6507384 8:0.98992417 9:0.1404789 10:0.19775335 11:-0.046309075 12:-0.29450343 13:-0.30867909 14:1.0150326 15:0.26724111 16:-0.0018767726 17:0.018504498 18:-0.020928818 19:-0.41698039 20:-0.14105988 21:0.1450846 22:-0.01406244 23:0.026986259 24:-0.02227933 25:0.06028617 26:-0.41885464 27:-0.086895459 28:0.0051692678 29:-0.0072320036 30:-0.012482485 31:0.1367521 32:0.034423604 33:-0.01120865 34:0.0039336409 35:-0.0025963645 36:0.0076961693 
0.0651095034521587 1:-0.86438575 2:-4.7808927 3:-0.55520942 4:0.69485079 5:0.066057085 6:-0.73572663 7:0.68521922 8:-0.74277908 9:1.0381599 10:-0.080803865 11:-0.1796229 12:0.13819104 13:-0.30867909 14:1.0150326 15:0.26724111 16:-0.0018767726 17:0.018504498 18:-0.020928818 19:-0.41698039 20:-0.14105988 21:0.1450846 22:-0.01406244 23:0.026986259 24:-0.02227933 25:0.06028617 26:-0.41885464 27:-0.086895459 28:0.0051692678 29:-0.0072320036 30:-0.012482485 31:0.1367521 32:0.034423604 33:-0.01120865 34:0.0039336409 35:-0.0025963645 36:0.0076961693 
0.9285890656634387 1:2.1408326 2:-1.1706521 3:-0.25091152 4:0.44402821 5:0.44257637 6:-1.0204063 7:0.21894668 8:0.8260796 9:0.0090187324 10:-0.35821207 11:-0.44562218 12:-0.32769713 13:-0.30867909 14:1.0150326 15:0.26724111 16:-0.0018767726 17:0.018504498 18:-0.020928818 19:-0.41698039 20:-0.14105988 21:0.1450846 22:-0.01406244 23:0.026986259 24:-0.02227933 25:0.06028617 26:-0.41885464 27:-0.086895459 28:0.0051692678 29:-0.0072320036 30:-0.012482485 31:0.1367521 32:0.034423604 33:-0.01120865 34:0.0039336409 35:-0.0025963645 36:0.0076961693 
4 1:1.7201819 2:-2.3395781 3:-0.08177946 4:0.42279633 5:0.39485562 6:-0.26967004 7:1.4605852 8:0.14811706 9:-0.56474064 10:-0.34198666 11:-0.23479083 12:-0.33366802 13:-0.30867909 14:1.0150326 15:0.26724111 16:-0.0018767726 17:0.018504498 18:-0.020928818 19:-0.41698039 20:-0.14105988 21:0.1450846 22:-0.01406244 23:0.026986259 24:-0.02227933 25:0.06028617 26:-0.41885464 27:-0.086895459 28:0.0051692678 29:-0.0072320036 30:-0.012482485 31:0.1367521 32:0.034423604 33:-0.01120865 34:0.0039336409 35:-0.0025963645 36:0.0076961693 
4 1:0.81104594 2:-2.8997194 3:0.50931311 4:0.40957041 5:0.383968 6:-0.48949526 7:0.61456286 8:0.015970553 9:-0.58970962 10:-0.30551098 11:-0.29284359 12:-0.021630203 13:-0.30867909 14:1.0150326 15:0.26724111 16:-0.0018767726 17:0.018504498 18:-0.020928818 19:-0.41698039 20:-0.14105988 21:0.1450846 22:-0.01406244 23:0.026986259 24:-0.02227933 25:0.06028617 26:-0.41885464 27:-0.086895459 28:0.0051692678 29:-0.0072320036 30:-0.012482485 31:0.1367521 32:0.034423604 33:-0.01120865 34:0.0039336409 35:-0.0025963645 36:0.0076961693 
4 1:2.1861918 2:-3.3186621 3:-0.12160317 4:0.3054777 5:0.38844899 6:-0.87544928 7:0.6861523 8:0.19901702 9:-0.765011 10:-0.21625117 11:-0.3072539 12:0.36063824 13:-0.30867909 14:1.0150326 15:0.26724111 16:-0.0018767726 17:0.018504498 18:-0.020928818 19:-0.41698039 20:-0.14105988 21:0.1450846 22:-0.01406244 23:0.026986259 24:-0.02227933 25:0.06028617 26:-0.41885464 27:-0.086895459 28:0.0051692678 29:-0.0072320036 30:-0.012482485 31:0.1367521 32:0.034423604 33:-0.01120865 34:0.0039336409 35:-0.0025963645 36:0.0076961693 
4 1:2.5866417 2:-2.5991489 3:-0.028260213 4:0.35526485 5:0.46033004 6:-0.96669228 7:0.31121062 8:0.6810153 9:-0.88056731 10:-0.14583962 11:-0.37087023 12:0.42054887 13:-0.30867909 14:1.0150326 15:0.26724111 16:-0.0018767726 17:0.018504498 18:-0.020928818 19:-0.41698039 20:-0.14105988 21:0.1450846 22:-0.01406244 23:0.026986259 24:-0.02227933 25:0.06028617 26:-0.41885464 27:-0.086895459 28:0.0051692678 29:-0.0072320036 30:-0.012482485 31:0.1367521 32:0.034423604 33:-0.01120865 34:0.0039336409 35:-0.0025963645 36:0.0076961693 
1.145613526346895 1:4.8069222 2:-6.3919936 3:-1.5321526 4:0.41448924 5:0.30189794 6:-1.1711088 7:-0.84224839 8:2.9129918 9:0.073033638 10:0.13004641 11:-0.31779334 12:0.70035686 13:-0.30867909 14:1.0150326 15:0.26724111 16:-0.0018767726 17:0.018504498 18:-0.020928818 19:-0.41698039 20:-0.14105988 21:0.1450846 22:-0.01406244 23:0.026986259 24:-0.02227933 25:0.06028617 26:-0.41885464 27:-0.086895459 28:0.0051692678 29:-0.0072320036 30:-0.012482485 31:0.1367521 32:0.034423604 33:-0.01120865 34:0.0039336409 35:-0.0025963645 36:0.0076961693 
4 1:-1.4149812 2:0.433871 3:0.20712326 4:0.12653264 5:-0.14161578 6:-0.39804706 7:0.47141843 8:0.091368332 9:-0.19090799 10:-0.049867746 11:0.016532226 12:-0.00011906548 13:-0.30867909 14:1.0150326 15:0.26724111 16:-0.0018767726 17:0.018504498 18:-0.020928818 19:-0.41698039 20:-0.14105988 21:0.1450846 22:-0.01406244 23:0.026986259 24:-0.02227933 25:0.06028617 26:-0.41885464 27:-0.086895459 28:0.0051692678 29:-0.0072320036 30:-0.012482485 31:0.1367521 32:0.034423604 33:-0.01120865 34:0.0039336409 35:-0.0025963645 36:0.0076961693 
4 1:-0.6766408 2:0.21195436 3:0.12337092 4:0.074456706 5:-0.072505861 6:-0.1381489 7:0.033162285 8:0.13718518 9:-0.061789323 10:-0.0051872907 11:-0.0084508248 12:-0.041613499 13:-0.30867909 14:1.0150326 15:0.26724111 16:-0.0018767726 17:0.018504498 18:-0.020928818 19:-0.41698039 20:-0.14105988 21:0.1450846 22:-0.01406244 23:0.026986259 24:-0.02227933 25:0.06028617 26:-0.41885464 27:-0.086895459 28:0.0051692678 29:-0.0072320036 30:-0.012482485 31:0.1367521 32:0.034423604 33:-0.01120865 34:0.0039336409 35:-0.0025963645 36:0.0076961693 
4 1:-0.7545955 2:0.094694954 3:0.23702928 4:0.1060723 5:-0.082596153 6:-0.083851801 7:-0.22264331 8:0.41457038 9:-0.15493045 10:-0.018858257 11:-0.011197203 12:-0.099569101 13:-0.30867909 14:1.0150326 15:0.26724111 16:-0.0018767726 17:0.018504498 18:-0.020928818 19:-0.41698039 20:-0.14105988 21:0.1450846 22:-0.01406244 23:0.026986259 24:-0.02227933 25:0.06028617 26:-0.41885464 27:-0.086895459 28:0.0051692678 29:-0.0072320036 30:-0.012482485 31:0.1367521 32:0.034423604 33:-0.01120865 34:0.0039336409 35:-0.0025963645 36:0.0076961693 
4 1:-0.72269939 2:0.22221462 3:0.13268623 4:0.078703099 5:-0.075945482 6:-0.14552135 7:0.043820426 8:0.13973483 9:-0.077906282 10:-0.016625965 11:0.0072244474 12:-0.0029639225 13:-0.30867909 14:1.0150326 15:0.26724111 16:-0.0018767726 17:0.018504498 18:-0.020928818 19:-0.41698039 20:-0.14105988 21:0.1450846 22:-0.01406244 23:0.026986259 24:-0.02227933 25:0.06028617 26:-0.41885464 27:-0.086895459 28:0.0051692678 29:-0.0072320036 30:-0.012482485 31:0.1367521 32:0.034423604 33:-0.01120865 34:0.0039336409 35:-0.0025963645 36:0.0076961693 
2.090930977352999 1:-0.88894398 2:0.12233567 3:0.23478084 4:0.29882206 5:0.025910933 6:-0.5198952 7:-0.16609664 8:1.3114062 9:0.41804924 10:0.0053520186 11:-0.096390239 12:-0.016665603 13:-0.30867909 14:1.0150326 15:0.26724111 16:-0.0018767726 17:0.018504498 18:-0.020928818 19:-0.41698039 20:-0.14105988 21:0.1450846 22:-0.01406244 23:0.026986259 24:-0.02227933 25:0.06028617 26:-0.41885464 27:-0.086895459 28:0.0051692678 29:-0.0072320036 30:-0.012482485 31:0.1367521 32:0.034423604 33:-0.01120865 34:0.0039336409 35:-0.0025963645 36:0.0076961693 
4 1:-0.17820088 2:0.014375129 3:0.071872914 4:0.038331587 5:-0.023285187 6:-0.018331904 7:-0.14101552 8:0.26421854 9:-0.072916345 10:-0.0087205037 11:-0.013941331 12:-0.093836433 13:-0.30867909 14:1.0150326 15:0.26724111 16:-0.0018767726 17:0.018504498 18:-0.020928818 19:-0.41698039 20:-0.14105988 21:0.1450846 22:-0.01406244 23:0.026986259 24:-0.02227933 25:0.06028617 26:-0.41885464 27:-0.086895459 28:0.0051692678 29:-0.0072320036 30:-0.012482485 31:0.1367521 32:0.034423604 33:-0.01120865 34:0.0039336409 35:-0.0025963645 36:0.0076961693 
4 1:0.094032364 2:-0.32612469 3:-0.082304332 4:0.19366702 5:0.0160355 6:-0.0439357 7:0.73058841 8:1.1087414 9:-0.33094842 10:-0.011112647 11:-0.0073215299 12:-0.28402764 13:-0.30867909 14:1.0150326 15:0.26724111 16:-0.0018767726 17:0.018504498 18:-0.020928818 19:-0.41698039 20:-0.14105988 21:0.1450846 22:-0.01406244 23:0.026986259 24:-0.02227933 25:0.06028617 26:-0.41885464 27:-0.086895459 28:0.0051692678 29:-0.0072320036 30:-0.012482485 31:0.1367521 32:0.034423604 33:-0.01120865 34:0.0039336409 35:-0.0025963645 36:0.0076961693 
4 1:-0.47019347 2:-0.13315043 3:0.1844073 4:0.044819001 5:-0.029768807 6:-0.065688766 7:-0.097063422 8:0.4438948 9:-0.20257885 10:-0.0021564515 11:-0.060340554 12:-0.21991365 13:-0.30867909 14:1.0150326 15:0.26724111 16:-0.0018767726 17:0.018504498 18:-0.020928818 19:-0.41698039 20:-0.14105988 21:0.1450846 22:-0.01406244 23:0.026986259 24:-0.02227933 25:0.06028617 26:-0.41885464 27:-0.086895459 28:0.0051692678 29:-0.0072320036 30:-0.012482485 31:0.1367521 32:0.034423604 33:-0.01120865 34:0.0039336409 35:-0.0025963645 36:0.0076961693 
4 1:-1.1641368 2:-0.45702611 3:0.40694418 4:0.025194304 5:0.03528861 6:-0.11452458 7:0.80848899 8:-0.37297761 9:-0.19666623 10:-0.054834156 11:-0.059652691 12:-0.41475155 13:-0.30867909 14:1.0150326 15:0.26724111 16:-0.0018767726 17:0.018504498 18:-0.020928818 19:-0.41698039 20:-0.14105988 21:0.1450846 22:-0.01406244 23:0.026986259 24:-0.02227933 25:0.06028617 26:-0.41885464 27:-0.086895459 28:0.0051692678 29:-0.0072320036 30:-0.012482485 31:0.1367521 32:0.034423604 33:-0.01120865 34:0.0039336409 35:-0.0025963645 36:0.0076961693 
-4 1:9.0348442 2:-2.457331 3:-0.6268807 4:-0.06192162 5:-0.030050126 6:-1.0793018 7:-1.6600795 8:0.71496853 9:-0.13204748 10:-0.043786594 11:0.05737184 12:-0.80105341 13:0.56108363 14:0.13385863 15:0.33123749 16:0.064250172 17:-0.0022444937 18:-0.05915937 19:-0.45926843 20:-0.080900891 21:-0.042850728 22:0.015581223 23:-0.0024700828 24:0.034506656 25:-0.010338268 26:0.1853175 27:0.0038318614 28:-0.0033056684 29:0.010776981 30:0.0045018347 31:-0.086157951 32:-0.025394452 33:0.00054568654 34:0.0040316282 35:-0.0013219651 36:0.0013155042 
-3.185188330718718 1:9.134731 2:-1.2813512 3:-0.10449484 4:-0.29114031 5:-0.15862501 6:-0.65836269 7:-0.53735276 8:-0.66724037 9:-0.23863756 10:0.050888022 11:0.32662638 12:-0.66415665 13:0.56108363 14:0.13385863 15:0.33123749 16:0.064250172 17:-0.0022444937 18:-0.05915937 19:-0.45926843 20:-0.080900891 21:-0.042850728 22:0.015581223 23:-0.0024700828 24:0.034506656 25:-0.010338268 26:0.1853175 27:0.0038318614 28:-0.0033056684 29:0.010776981 30:0.0045018347 31:-0.086157951 32:-0.025394452 33:0.00054568654 34:0.0040316282 35:-0.0013219651 36:0.0013155042 
-0.8175011402345793 1:7.8884051 2:-3.6341182 3:-0.88714449 4:-0.079318533 5:0.057471585 6:-1.3397633 7:-1.4017746 8:0.76482552 9:-0.6232247 10:0.0018793908 11:0.12423512 12:-0.58950246 13:0.56108363 14:0.13385863 15:0.33123749 16:0.064250172 17:-0.0022444937 18:-0.05915937 19:-0.45926843 20:-0.080900891 21:-0.042850728 22:0.015581223 23:-0.0024700828 24:0.034506656 25:-0.010338268 26:0.1853175 27:0.0038318614 28:-0.0033056684 29:0.010776981 30:0.0045018347 31:-0.086157951 32:-0.025394452 33:0.00054568654 34:0.0040316282 35:-0.0013219651 36:0.0013155042 
-4 1:9.8745267 2:-1.7826926 3:-0.16501107 4:-0.21043915 5:0.017380414 6:-0.75843875 7:0.1861525 8:0.93732407 9:0.066580222 10:0.0027934908 11:0.078756655 12:-0.50312028 13:0.56108363 14:0.13385863 15:0.33123749 16:0.064250172 17:-0.0022444937 18:-0.05915937 19:-0.45926843 20:-0.080900891 21:-0.042850728 22:0.015581223 23:-0.0024700828 24:0.034506656 25:-0.010338268 26:0.1853175 27:0.0038318614 28:-0.0033056684 29:0.010776981 30:0.0045018347 31:-0.086157951 32:-0.025394452 33:0.00054568654 34:0.0040316282 35:-0.0013219651 36:0.0013155042 
-0.3999162985324857 1:10.689191 2:-1.1372388 3:-0.26526196 4:-0.11825386 5:0.044017869 6:-1.4336223 7:-0.64491353 8:0.041107924 9:0.14248362 10:-0.11843792 11:0.12801202 12:-0.35609458 13:0.56108363 14:0.13385863 15:0.33123749 16:0.064250172 17:-0.0022444937 18:-0.05915937 19:-0.45926843 20:-0.080900891 21:-0.042850728 22:0.015581223 23:-0.0024700828 24:0.034506656 25:-0.010338268 26:0.1853175 27:0.0038318614 28:-0.0033056684 29:0.010776981 30:0.0045018347 31:-0.086157951 32:-0.025394452 33:0.00054568654 34:0.0040316282 35:-0.0013219651 36:0.0013155042 
-1.178954644135125 1:11.961095 2:-3.9510024 3:-0.97193763 4:-0.13075254 5:0.097384754 6:-0.81536651 7:-0.52825987 8:0.2946044 9:0.25669475 10:-0.12531249 11:0.045606776 12:-0.54941532 13:0.56108363 14:0.13385863 15:0.33123749 16:0.064250172 17:-0.0022444937 18:-0.05915937 19:-0.45926843 20:-0.080900891 21:-0.042850728 22:0.015581223 23:-0.0024700828 24:0.034506656 25:-0.010338268 26:0.1853175 27:0.0038318614 28:-0.0033056684 29:0.010776981 30:0.0045018347 31:-0.086157951 32:-0.025394452 33:0.00054568654 34:0.0040316282 35:-0.0013219651 36:0.0013155042 
-0.5585132339042443 1:9.5676411 2:-4.2773979 3:-1.752562 4:-0.0061737791 5:-0.046275289 6:-0.91311554 7:-1.4423613 8:0.54668835 9:0.25544326 10:0.013203843 11:0.16792229 12:0.038532714 13:0.56108363 14:0.13385863 15:0.33123749 16:0.064250172 17:-0.0022444937 18:-0.05915937 19:-0.45926843 20:-0.080900891 21:-0.042850728 22:0.015581223 23:-0.0024700828 24:0.034506656 25:-0.010338268 26:0.1853175 27:0.0038318614 28:-0.0033056684 29:0.010776981 30:0.0045018347 31:-0.086157951 32:-0.025394452 33:0.00054568654 34:0.0040316282 35:-0.0013219651 36:0.0013155042 
-1.413709091616044 1:7.7259091 2:-4.2780917 3:-0.4362408 4:-0.067820127 5:0.098152012 6:-0.23171273 7:1.9269713 8:0.37729208 9:-0.25471416 10:-0.017253463 11:0.14524087 12:0.11068445 13:0.56108363 14:0.13385863 15:0.33123749 16:0.064250172 17:-0.0022444937 18:-0.05915937 19:-0.45926843 20:-0.080900891 21:-0.042850728 22:0.015581223 23:-0.0024700828 24:0.034506656 25:-0.010338268 26:0.1853175 27:0.0038318614 28:-0.0033056684 29:0.010776981 30:0.0045018347 31:-0.086157951 32:-0.025394452 33:0.00054568654 34:0.0040316282 35:-0.0013219651 36:0.0013155042 
-4 1:5.1108613 2:-4.792645 3:-0.53673761 4:-0.22400306 5:0.13492492 6:0.24187584 7:1.1883174 8:0.45040474 9:0.069134947 10:-0.026117952 11:0.18147239 12:-0.4231897 13:0.56108363 14:0.13385863 15:0.33123749 16:0.064250172 17:-0.0022444937 18:-0.05915937 19:-0.45926843 20:-0.080900891 21:-0.042850728 22:0.015581223 23:-0.0024700828 24:0.034506656 25:-0.010338268 26:0.1853175 27:0.0038318614 28:-0.0033056684 29:0.010776981 30:0.0045018347 31:-0.086157951 32:-0.025394452 33:0.00054568654 34:0.0040316282 35:-0.0013219651 36:0.0013155042 
-4 1:5.5064891 2:-3.9874992 3:-0.87379157 4:-0.072110505 5:0.098559778 6:-1.2921549 7:0.85378213 8:0.38935167 9:-0.012785139 10:0.016561387 11:0.090268329 12:-0.59135088 13:0.56108363 14:0.13385863 15:0.33123749 16:0.064250172 17:-0.0022444937 18:-0.05915937 19:-0.45926843 20:-0.080900891 21:-0.042850728 22:0.015581223 23:-0.0024700828 24:0.034506656 25:-0.010338268 26:0.1853175 27:0.0038318614 28:-0.0033056684 29:0.010776981 30:0.0045018347 31:-0.086157951 32:-0.025394452 33:0.00054568654 34:0.0040316282 35:-0.0013219651 36:0.0013155042 
-0.4843892466634913 1:5.236205 2:-6.880622 3:-0.64255873 4:0.01378268 5:0.12697119 6:-1.0517038 7:0.18260308 8:0.75316913 9:0.14638577 10:-0.1414555 11:0.12020878 12:0.037996942 13:0.56108363 14:0.13385863 15:0.33123749 16:0.064250172 17:-0.0022444937 18:-0.05915937 19:-0.45926843 20:-0.080900891 21:-0.042850728 22:0.015581223 23:-0.0024700828 24:0.034506656 25:-0.010338268 26:0.1853175 27:0.0038318614 28:-0.0033056684 29:0.010776981 30:0.0045018347 31:-0.086157951 32:-0.025394452 33:0.00054568654 34:0.0040316282 35:-0.0013219651 36:0.0013155042 
-0.1393568559401255 1:4.5680592 2:-5.6631933 3:-0.95295397 4:-0.012177542 5:0.2100424 6:-1.2170687 7:0.096831614 8:-0.64559189 9:0.13019142 10:-0.011187317 11:0.12562486 12:-0.15633348 13:0.56108363 14:0.13385863 15:0.33123749 16:0.064250172 17:-0.0022444937 18:-0.05915937 19:-0.45926843 20:-0.080900891 21:-0.042850728 22:0.015581223 23:-0.0024700828 24:0.034506656 25:-0.010338268 26:0.1853175 27:0.0038318614 28:-0.0033056684 29:0.010776981 30:0.0045018347 31:-0.086157951 32:-0.025394452 33:0.00054568654 34:0.0040316282 35:-0.0013219651 36:0.0013155042 
-4 1:6.1264134 2:-2.6556267 3:-0.053991805 4:-0.12959318 5:0.076006801 6:-0.80886224 7:-0.15523977 8:0.24330928 9:-0.082282649 10:-0.061304496 11:-0.12595518 12:-0.079181684 13:0.56108363 14:0.13385863 15:0.33123749 16:0.064250172 17:-0.0022444937 18:-0.05915937 19:-0.45926843 20:-0.080900891 21:-0.042850728 22:0.015581223 23:-0.0024700828 24:0.034506656 25:-0.010338268 26:0.1853175 27:0.0038318614 28:-0.0033056684 29:0.010776981 30:0.0045018347 31:-0.086157951 32:-0.025394452 33:0.00054568654 34:0.0040316282 35:-0.0013219651 36:0.0013155042 
-4 1:4.9667854 2:-3.3306674 3:-0.071789165 4:-0.20659466 5:-0.15411077 6:-0.84869657 7:-0.24047614 8:1.2731883 9:0.47828244 10:-0.08533054 11:0.10149704 12:-0.41180304 13:0.56108363 14:0.13385863 15:0.33123749 16:0.064250172 17:-0.0022444937 18:-0.05915937 19:-0.45926843 20:-0.080900891 21:-0.042850728 22:0.015581223 23:-0.0024700828 24:0.034506656 25:-0.010338268 26:0.1853175 27:0.0038318614 28:-0.0033056684 29:0.010776981 30:0.0045018347 31:-0.086157951 32:-0.025394452 33:0.00054568654 34:0.0040316282 35:-0.0013219651 36:0.0013155042 
-0.7043616844109054 1:1.3694631 2:-5.4616193 3:0.10116923 4:0.36242948 5:0.38531929 6:-0.13868343 7:-0.74678485 8:3.042657 9:1.1021017 10:-0.11967837 11:-0.33893006 12:-1.2372991 13:0.56108363 14:0.13385863 15:0.33123749 16:0.064250172 17:-0.0022444937 18:-0.05915937 19:-0.45926843 20:-0.080900891 21:-0.042850728 22:0.015581223 23:-0.0024700828 24:0.034506656 25:-0.010338268 26:0.1853175 27:0.0038318614 28:-0.0033056684 29:0.010776981 30:0.0045018347 31:-0.086157951 32:-0.025394452 33:0.00054568654 34:0.0040316282 35:-0.0013219651 36:0.0013155042 
-4 1:-2.2788672 2:-4.2096271 3:-0.3165353 4:0.30425047 5:0.23199294 6:-0.64478627 7:-0.35231116 8:1.3677023 9:0.55633718 10:-0.031806986 11:-0.18720682 12:-0.74562014 13:0.56108363 14:0.13385863 15:0.33123749 16:0.064250172 17:-0.0022444937 18:-0.05915937 19:-0.45926843 20:-0.080900891 21:-0.042850728 22:0.015581223 23:-0.0024700828 24:0.034506656 25:-0.010338268 26:0.1853175 27:0.0038318614 28:-0.0033056684 29:0.010776981 30:0.0045018347 31:-0.086157951 32:-0.025394452 33:0.00054568654 34:0.0040316282 35:-0.0013219651 36:0.0013155042 
-4 1:0.39100543 2:0.38849211 3:0.16716348 4:-0.049230901 5:-0.048262736 6:0.15746456 7:0.35143456 8:0.3393472 9:0.14171436 10:-0.040435299 11:-0.038319455 12:0.12051816 13:0.005759216 14:0.0057221968 15:0.0024621924 16:-0.00072513416 17:-0.00071087382 18:0.0023193346 19:0.0051763668 20:0.0049983292 21:0.002087346 22:-0.00059558156 23:-0.00056441676 24:0.0017751418 25:-0.00037257957 26:-0.00037018469 27:-0.00015928602 28:4.6910928e-05 29:4.5988388e-05 30:-0.00015004415 31:-0.00033487345 32:-0.0003233557 33:-0.00013503617 34:3.8529813e-05 35:3.6513677e-05 36:-0.00011483882 
-4 1:0.20683133 2:0.20550186 3:0.088424976 4:-0.026041819 5:-0.025529686 6:0.083294506 7:0.18589941 8:0.17950552 9:0.074963075 10:-0.021389183 11:-0.020269959 12:0.063750855 13:0.005759216 14:0.0057221968 15:0.0024621924 16:-0.00072513416 17:-0.00071087382 18:0.0023193346 19:0.0051763668 20:0.0049983292 21:0.002087346 22:-0.00059558156 23:-0.00056441676 24:0.0017751418 25:-0.00037257957 26:-0.00037018469 27:-0.00015928602 28:4.6910928e-05 29:4.5988388e-05 30:-0.00015004415 31:-0.00033487345 32:-0.0003233557 33:-0.00013503617 34:3.8529813e-05 35:3.6513677e-05 36:-0.00011483882 
-4 1:0.30190222 2:0.29996164 3:0.12906989 4:-0.038012051 5:-0.037264513 6:0.12158117 7:0.27134885 8:0.26201599 9:0.10942017 10:-0.031220811 11:-0.02958713 12:0.093054202 13:0.005759216 14:0.0057221968 15:0.0024621924 16:-0.00072513416 17:-0.00071087382 18:0.0023193346 19:0.0051763668 20:0.0049983292 21:0.002087346 22:-0.00059558156 23:-0.00056441676 24:0.0017751418 25:-0.00037257957 26:-0.00037018469 27:-0.00015928602 28:4.6910928e-05 29:4.5988388e-05 30:-0.00015004415 31:-0.00033487345 32:-0.0003233557 33:-0.00013503617 34:3.8529813e-05 35:3.6513677e-05 36:-0.00011483882 
-4 1:0.34965289 2:0.34740539 3:0.14948436 4:-0.044024266 5:-0.043158494 6:0.14081119 7:0.31426702 8:0.30345802 9:0.12672672 10:-0.036158883 11:-0.034266809 12:0.10777222 13:0.005759216 14:0.0057221968 15:0.0024621924 16:-0.00072513416 17:-0.00071087382 18:0.0023193346 19:0.0051763668 20:0.0049983292 21:0.002087346 22:-0.00059558156 23:-0.00056441676 24:0.0017751418 25:-0.00037257957 26:-0.00037018469 27:-0.00015928602 28:4.6910928e-05 29:4.5988388e-05 30:-0.00015004415 31:-0.00033487345 32:-0.0003233557 33:-0.00013503617 34:3.8529813e-05 35:3.6513677e-05 36:-0.00011483882 
-4 1:0.37419451 2:0.37178926 3:0.15997644 4:-0.047114264 5:-0.046187725 6:0.15069452 7:0.33632496 8:0.32475728 9:0.13562148 10:-0.038696821 11:-0.036671945 12:0.11533659 13:0.005759216 14:0.0057221968 15:0.0024621924 16:-0.00072513416 17:-0.00071087382 18:0.0023193346 19:0.0051763668 20:0.0049983292 21:0.002087346 22:-0.00059558156 23:-0.00056441676 24:0.0017751418 25:-0.00037257957 26:-0.00037018469 27:-0.00015928602 28:4.6910928e-05 29:4.5988388e-05 30:-0.00015004415 31:-0.00033487345 32:-0.0003233557 33:-0.00013503617 34:3.8529813e-05 35:3.6513677e-05 36:-0.00011483882 
-4 1:0.48522878 2:-4.796269 3:-0.57465694 4:-0.52855015 5:-0.23413401 6:-1.3371167 7:-1.8211474 8:2.0865979 9:0.6238407 10:0.17191464 11:0.10561431 12:0.38686959 13:0.005759216 14:0.0057221968 15:0.0024621924 16:-0.00072513416 17:-0.00071087382 18:0.0023193346 19:0.0051763668 20:0.0049983292 21:0.002087346 22:-0.00059558156 23:-0.00056441676 24:0.0017751418 25:-0.00037257957 26:-0.00037018469 27:-0.00015928602 28:4.6910928e-05 29:4.5988388e-05 30:-0.00015004415 31:-0.00033487345 32:-0.0003233557 33:-0.00013503617 34:3.8529813e-05 35:3.6513677e-05 36:-0.00011483882 
-0.3605804695372149 1:-0.084288963 2:-6.4515926 3:-0.014075275 4:-0.40444053 5:-0.087295129 6:0.11884414 7:-1.4376798 8:-2.1416729 9:0.73979856 10:-0.28854874 11:0.16050493 12:-0.57067815 13:0.005759216 14:0.0057221968 15:0.0024621924 16:-0.00072513416 17:-0.00071087382 18:0.0023193346 19:0.0051763668 20:0.0049983292 21:0.002087346 22:-0.00059558156 23:-0.00056441676 24:0.0017751418 25:-0.00037257957 26:-0.00037018469 27:-0.00015928602 28:4.6910928e-05 29:4.5988388e-05 30:-0.00015004415 31:-0.00033487345 32:-0.0003233557 33:-0.00013503617 34:3.8529813e-05 35:3.6513677e-05 36:-0.00011483882 
-4 1:-3.6959328 2:0.38691451 3:1.2321886 4:0.54917863 5:-0.43513461 6:-0.47363487 7:-1.1476421 8:2.3438105 9:-0.98424414 10:-0.17124172 11:0.022215328 12:-0.27581199 13:0.005759216 14:0.0057221968 15:0.0024621924 16:-0.00072513416 17:-0.00071087382 18:0.0023193346 19:0.0051763668 20:0.0049983292 21:0.002087346 22:-0.00059558156 23:-0.00056441676 24:0.0017751418 25:-0.00037257957 26:-0.00037018469 27:-0.00015928602 28:4.6910928e-05 29:4.5988388e-05 30:-0.00015004415 31:-0.00033487345 32:-0.0003233557 33:-0.00013503617 34:3.8529813e-05 35:3.6513677e-05 36:-0.00011483882 
-2.370686196612472 1:-3.8272799 2:-4.815506 3:1.4804227 4:-0.12803487 5:-0.14275423 6:-1.7604774 7:1.3578594 8:1.9649196 9:-0.66553102 10:-0.13682847 11:0.2747833 12:0.52678259 13:0.005759216 14:0.0057221968 15:0.0024621924 16:-0.00072513416 17:-0.00071087382 18:0.0023193346 19:0.0051763668 20:0.0049983292 21:0.002087346 22:-0.00059558156 23:-0.00056441676 24:0.0017751418 25:-0.00037257957 26:-0.00037018469 27:-0.00015928602 28:4.6910928e-05 29:4.5988388e-05 30:-0.00015004415 31:-0.00033487345 32:-0.0003233557 33:-0.00013503617 34:3.8529813e-05 35:3.6513677e-05 36:-0.00011483882 
-2.972347521610615 1:-4.5643579 2:-1.7818683 3:2.1108654 4:0.38892277 5:-0.022067215 6:-0.02362998 7:1.5372911 8:-1.2395059 9:-0.59211703 10:-0.43486679 11:0.31971568 12:-0.044234082 13:0.005759216 14:0.0057221968 15:0.0024621924 16:-0.00072513416 17:-0.00071087382 18:0.0023193346 19:0.0051763668 20:0.0049983292 21:0.002087346 22:-0.00059558156 23:-0.00056441676 24:0.0017751418 25:-0.00037257957 26:-0.00037018469 27:-0.00015928602 28:4.6910928e-05 29:4.5988388e-05 30:-0.00015004415 31:-0.00033487345 32:-0.0003233557 33:-0.00013503617 34:3.8529813e-05 35:3.6513677e-05 36:-0.00011483882 
-4 1:-3.3833742 2:0.10380391 3:1.1178974 4:0.4268678 5:-0.32714098 6:-0.60926371 7:0.31582454 8:1.0139685 9:-1.042975 10:-0.37213079 11:0.22348699 12:-0.16274142 13:0.005759216 14:0.0057221968 15:0.0024621924 16:-0.00072513416 17:-0.00071087382 18:0.0023193346 19:0.0051763668 20:0.0049983292 21:0.002087346 22:-0.00059558156 23:-0.00056441676 24:0.0017751418 25:-0.00037257957 26:-0.00037018469 27:-0.00015928602 28:4.6910928e-05 29:4.5988388e-05 30:-0.00015004415 31:-0.00033487345 32:-0.0003233557 33:-0.00013503617 34:3.8529813e-05 35:3.6513677e-05 36:-0.00011483882 
-2.437930033929775 1:-4.3422032 2:-0.031145287 3:1.5148173 4:0.6343616 5:-0.48899569 6:-0.22834193 7:-2.1946235 8:2.3991235 9:-0.5533329 10:-0.05385029 11:-0.021143577 12:-0.13605464 13:0.005759216 14:0.0057221968 15:0.0024621924 16:-0.00072513416 17:-0.00071087382 18:0.0023193346 19:0.0051763668 20:0.0049983292 21:0.002087346 22:-0.00059558156 23:-0.00056441676 24:0.0017751418 25:-0.00037257957 26:-0.00037018469 27:-0.00015928602 28:4.6910928e-05 29:4.5988388e-05 30:-0.00015004415 31:-0.00033487345 32:-0.0003233557 33:-0.00013503617 34:3.8529813e-05 35:3.6513677e-05 36:-0.00011483882 
-2.377783885517634 1:-2.2429499 2:-3.3765694 3:-0.34759783 4:0.096358358 5:-0.77295405 6:-0.97337255 7:-2.0179193 8:-0.030228558 9:-0.065176343 10:-0.37810398 11:0.23911793 12:-0.17115376 13:0.005759216 14:0.0057221968 15:0.0024621924 16:-0.00072513416 17:-0.00071087382 18:0.0023193346 19:0.0051763668 20:0.0049983292 21:0.002087346 22:-0.00059558156 23:-0.00056441676 24:0.0017751418 25:-0.00037257957 26:-0.00037018469 27:-0.00015928602 28:4.6910928e-05 29:4.5988388e-05 30:-0.00015004415 31:-0.00033487345 32:-0.0003233557 33:-0.00013503617 34:3.8529813e-05 35:3.6513677e-05 36:-0.00011483882 
-4 1:-0.16820999 2:-0.54656604 3:0.19583748 4:-0.038867761 5:0.076646406 6:0.0076534518 7:0.54922938 8:-0.29706418 9:-0.15582738 10:-0.05902076 11:-0.012391391 12:-0.1968612 13:0.005759216 14:0.0057221968 15:0.0024621924 16:-0.00072513416 17:-0.00071087382 18:0.0023193346 19:0.0051763668 20:0.0049983292 21:0.002087346 22:-0.00059558156 23:-0.00056441676 24:0.0017751418 25:-0.00037257957 26:-0.00037018469 27:-0.00015928602 28:4.6910928e-05 29:4.5988388e-05 30:-0.00015004415 31:-0.00033487345 32:-0.0003233557 33:-0.00013503617 34:3.8529813e-05 35:3.6513677e-05 36:-0.00011483882 
-0.4987350920817283 1:-0.18465981 2:-1.0103932 3:0.22949972 4:-0.10595721 5:0.10347489 6:-0.22654398 7:0.95097218 8:0.17265282 9:-0.42346242 10:-0.023215292 11:-0.11223723 12:-0.20924889 13:-0.30867909 14:1.0150326 15:0.26724111 16:-0.0018767726 17:0.018504498 18:-0.020928818 19:-0.41698039 20:-0.14105988 21:0.1450846 22:-0.01406244 23:0.026986259 24:-0.02227933 25:0.06028617 26:-0.41885464 27:-0.086895459 28:0.0051692678 29:-0.0072320036 30:-0.012482485 31:0.1367521 32:0.034423604 33:-0.01120865 34:0.0039336409 35:-0.0025963645 36:0.0076961693 
-4 1:-0.15296283 2:-0.72437844 3:0.1894711 4:-0.072113328 5:0.084796303 6:-0.13050996 7:0.76899605 8:4.3208932e-16 9:-0.334486 10:-0.039027452 11:-0.084796303 12:-0.24115096 13:-0.30867909 14:1.0150326 15:0.26724111 16:-0.0018767726 17:0.018504498 18:-0.020928818 19:-0.41698039 20:-0.14105988 21:0.1450846 22:-0.01406244 23:0.026986259 24:-0.02227933 25:0.06028617 26:-0.41885464 27:-0.086895459 28:0.0051692678 29:-0.0072320036 30:-0.012482485 31:0.1367521 32:0.034423604 33:-0.01120865 34:0.0039336409 35:-0.0025963645 36:0.0076961693 
-4 1:-0.14359707 2:-0.68002551 3:0.17786998 4:-0.067697905 5:0.079604314 6:-0.12251897 7:0.72191123 8:4.0563295e-16 9:-0.31400577 10:-0.036637842 11:-0.079604314 12:-0.22638555 13:-0.30867909 14:1.0150326 15:0.26724111 16:-0.0018767726 17:0.018504498 18:-0.020928818 19:-0.41698039 20:-0.14105988 21:0.1450846 22:-0.01406244 23:0.026986259 24:-0.02227933 25:0.06028617 26:-0.41885464 27:-0.086895459 28:0.0051692678 29:-0.0072320036 30:-0.012482485 31:0.1367521 32:0.034423604 33:-0.01120865 34:0.0039336409 35:-0.0025963645 36:0.0076961693 
-4 1:-0.1428886 2:-0.67667045 3:0.17699242 4:-0.067363901 5:0.079211568 6:-0.1219145 7:0.71834952 8:4.0363167e-16 9:-0.31245655 10:-0.036457081 11:-0.079211568 12:-0.22526862 13:-0.30867909 14:1.0150326 15:0.26724111 16:-0.0018767726 17:0.018504498 18:-0.020928818 19:-0.41698039 20:-0.14105988 21:0.1450846 22:-0.01406244 23:0.026986259 24:-0.02227933 25:0.06028617 26:-0.41885464 27:-0.086895459 28:0.0051692678 29:-0.0072320036 30:-0.012482485 31:0.1367521 32:0.034423604 33:-0.01120865 34:0.0039336409 35:-0.0025963645 36:0.0076961693 
-4 1:-0.13785408 2:-0.65282871 3:0.17075629 4:-0.064990408 5:0.076420636 6:-0.11761898 7:0.69303926 8:3.8941015e-16 9:-0.30144749 10:-0.035172556 11:-0.076420636 12:-0.21733153 13:-0.30867909 14:1.0150326 15:0.26724111 16:-0.0018767726 17:0.018504498 18:-0.020928818 19:-0.41698039 20:-0.14105988 21:0.1450846 22:-0.01406244 23:0.026986259 24:-0.02227933 25:0.06028617 26:-0.41885464 27:-0.086895459 28:0.0051692678 29:-0.0072320036 30:-0.012482485 31:0.1367521 32:0.034423604 33:-0.01120865 34:0.0039336409 35:-0.0025963645 36:0.0076961693 
-4 1:-0.13427694 2:-0.63588861 3:0.16632537 4:-0.063303988 5:0.074437614 6:-0.11456691 7:0.67505575 8:3.7930544e-16 9:-0.2936253 10:-0.034259871 11:-0.074437614 12:-0.21169204 13:-0.30867909 14:1.0150326 15:0.26724111 16:-0.0018767726 17:0.018504498 18:-0.020928818 19:-0.41698039 20:-0.14105988 21:0.1450846 22:-0.01406244 23:0.026986259 24:-0.02227933 25:0.06028617 26:-0.41885464 27:-0.086895459 28:0.0051692678 29:-0.0072320036 30:-0.012482485 31:0.1367521 32:0.034423604 33:-0.01120865 34:0.0039336409 35:-0.0025963645 36:0.0076961693 
-4 1:-0.12675713 2:-0.60027743 3:0.15701078 4:-0.059758823 5:0.070268942 6:-0.10815091 7:0.63725112 8:3.5806348e-16 9:-0.27718163 10:-0.032341242 11:-0.070268942 12:-0.19983682 13:-0.30867909 14:1.0150326 15:0.26724111 16:-0.0018767726 17:0.018504498 18:-0.020928818 19:-0.41698039 20:-0.14105988 21:0.1450846 22:-0.01406244 23:0.026986259 24:-0.02227933 25:0.06028617 26:-0.41885464 27:-0.086895459 28:0.0051692678 29:-0.0072320036 30:-0.012482485 31:0.1367521 32:0.034423604 33:-0.01120865 34:0.0039336409 35:-0.0025963645 36:0.0076961693 
-0.7091465408772446 1:-0.56131326 2:-0.10775257 3:0.30582993 4:0.10674631 5:-0.049590762 6:0.13741162 7:-0.79699998 8:0.73579928 9:-0.076215831 10:0.065366834 11:-0.10881361 12:-0.26131694 13:-0.30867909 14:1.0150326 15:0.26724111 16:-0.0018767726 17:0.018504498 18:-0.020928818 19:-0.41698039 20:-0.14105988 21:0.1450846 22:-0.01406244 23:0.026986259 24:-0.02227933 25:0.06028617 26:-0.41885464 27:-0.086895459 28:0.0051692678 29:-0.0072320036 30:-0.012482485 31:0.1367521 32:0.034423604 33:-0.01120865 34:0.0039336409 35:-0.0025963645 36:0.0076961693 
-4 1:-0.54591532 2:-0.10807113 3:0.29944167 4:0.10402463 5:-0.047631935 6:0.13781787 7:-0.78402509 8:0.71703881 9:-0.070258939 10:0.065560087 11:-0.10746364 12:-0.25465421 13:-0.30867909 14:1.0150326 15:0.26724111 16:-0.0018767726 17:0.018504498 18:-0.020928818 19:-0.41698039 20:-0.14105988 21:0.1450846 22:-0.01406244 23:0.026986259 24:-0.02227933 25:0.06028617 26:-0.41885464 27:-0.086895459 28:0.0051692678 29:-0.0072320036 30:-0.012482485 31:0.1367521 32:0.034423604 33:-0.01120865 34:0.0039336409 35:-0.0025963645 36:0.0076961693 
-4 1:-0.5420814 2:-0.10731216 3:0.29733872 4:0.10329407 5:-0.04729742 6:0.13684998 7:-0.77851895 8:0.7120031 9:-0.069765516 10:0.065099664 11:-0.10670893 12:-0.2528658 13:-0.30867909 14:1.0150326 15:0.26724111 16:-0.0018767726 17:0.018504498 18:-0.020928818 19:-0.41698039 20:-0.14105988 21:0.1450846 22:-0.01406244 23:0.026986259 24:-0.02227933 25:0.06028617 26:-0.41885464 27:-0.086895459 28:0.0051692678 29:-0.0072320036 30:-0.012482485 31:0.1367521 32:0.034423604 33:-0.01120865 34:0.0039336409 35:-0.0025963645 36:0.0076961693 
-4 1:-0.53950011 2:-0.10680116 3:0.29592285 4:0.1028022 5:-0.047072198 6:0.13619833 7:-0.77481179 8:0.70861267 9:-0.069433305 10:0.064789671 11:-0.1062008 12:-0.25166169 13:-0.30867909 14:1.0150326 15:0.26724111 16:-0.0018767726 17:0.018504498 18:-0.020928818 19:-0.41698039 20:-0.14105988 21:0.1450846 22:-0.01406244 23:0.026986259 24:-0.02227933 25:0.06028617 26:-0.41885464 27:-0.086895459 28:0.0051692678 29:-0.0072320036 30:-0.012482485 31:0.1367521 32:0.034423604 33:-0.01120865 34:0.0039336409 35:-0.0025963645 36:0.0076961693 
-4 1:-0.54461896 2:-0.10726963 3:0.29839759 4:0.10374323 5:-0.047618409 6:0.13679575 7:-0.78068425 8:0.71509913 9:-0.070735431 10:0.065073864 11:-0.10693638 12:-0.25396534 13:-0.30867909 14:1.0150326 15:0.26724111 16:-0.0018767726 17:0.018504498 18:-0.020928818 19:-0.41698039 20:-0.14105988 21:0.1450846 22:-0.01406244 23:0.026986259 24:-0.02227933 25:0.06028617 26:-0.41885464 27:-0.086895459 28:0.0051692678 29:-0.0072320036 30:-0.012482485 31:0.1367521 32:0.034423604 33:-0.01120865 34:0.0039336409 35:-0.0025963645 36:0.0076961693 
-4 1:-0.10481103 2:-0.49634838 3:0.12982671 4:-0.049412477 5:0.058102926 6:-0.089426195 7:0.52692063 8:2.9607015e-16 9:-0.22919178 10:-0.02674184 11:-0.058102926 12:-0.16523806 13:-0.30867909 14:1.0150326 15:0.26724111 16:-0.0018767726 17:0.018504498 18:-0.020928818 19:-0.41698039 20:-0.14105988 21:0.1450846 22:-0.01406244 23:0.026986259 24:-0.02227933 25:0.06028617 26:-0.41885464 27:-0.086895459 28:0.0051692678 29:-0.0072320036 30:-0.012482485 31:0.1367521 32:0.034423604 33:-0.01120865 34:0.0039336409 35:-0.0025963645 36:0.0076961693 
-4 1:-0.10630876 2:-0.50344112 3:0.13168192 4:-0.050118574 5:0.058933209 6:-0.090704082 7:0.53445025 8:3.0030095e-16 9:-0.23246689 10:-0.027123977 11:-0.058933209 12:-0.16759929 13:-0.30867909 14:1.0150326 15:0.26724111 16:-0.0018767726 17:0.018504498 18:-0.020928818 19:-0.41698039 20:-0.14105988 21:0.1450846 22:-0.01406244 23:0.026986259 24:-0.02227933 25:0.06028617 26:-0.41885464 27:-0.086895459 28:0.0051692678 29:-0.0072320036 30:-0.012482485 31:0.1367521 32:0.034423604 33:-0.01120865 34:0.0039336409 35:-0.0025963645 36:0.0076961693 
-4 1:-0.53411135 2:-0.10573438 3:0.29296704 4:0.10177537 5:-0.046602021 6:0.13483792 7:-0.76707263 8:0.70153475 9:-0.068739776 10:0.064142524 11:-0.10514002 12:-0.24914799 13:-0.30867909 14:1.0150326 15:0.26724111 16:-0.0018767726 17:0.018504498 18:-0.020928818 19:-0.41698039 20:-0.14105988 21:0.1450846 22:-0.01406244 23:0.026986259 24:-0.02227933 25:0.06028617 26:-0.41885464 27:-0.086895459 28:0.0051692678 29:-0.0072320036 30:-0.012482485 31:0.1367521 32:0.034423604 33:-0.01120865 34:0.0039336409 35:-0.0025963645 36:0.0076961693 
-4 1:-0.52923134 2:-0.10476832 3:0.29029029 4:0.10084548 5:-0.046176232 6:0.13360595 7:-0.76006412 8:0.69512503 9:-0.068111721 10:0.063556473 11:-0.10417939 12:-0.2468716 13:-0.30867909 14:1.0150326 15:0.26724111 16:-0.0018767726 17:0.018504498 18:-0.020928818 19:-0.41698039 20:-0.14105988 21:0.1450846 22:-0.01406244 23:0.026986259 24:-0.02227933 25:0.06028617 26:-0.41885464 27:-0.086895459 28:0.0051692678 29:-0.0072320036 30:-0.012482485 31:0.1367521 32:0.034423604 33:-0.01120865 34:0.0039336409 35:-0.0025963645 36:0.0076961693 
-4 1:-0.52937261 2:-0.10479628 3:0.29036778 4:0.1008724 5:-0.046188558 6:0.13364161 7:-0.76026701 8:0.69531058 9:-0.068129902 10:0.063573438 11:-0.1042072 12:-0.2469375 13:-0.30867909 14:1.0150326 15:0.26724111 16:-0.0018767726 17:0.018504498 18:-0.020928818 19:-0.41698039 20:-0.14105988 21:0.1450846 22:-0.01406244 23:0.026986259 24:-0.02227933 25:0.06028617 26:-0.41885464 27:-0.086895459 28:0.0051692678 29:-0.0072320036 30:-0.012482485 31:0.1367521 32:0.034423604 33:-0.01120865 34:0.0039336409 35:-0.0025963645 36:0.0076961693 
-4 1:-0.090297745 2:-0.42761854 3:0.11184948 4:-0.042570284 5:0.050057358 6:-0.077043263 7:0.45395742 8:2.5507303e-16 9:-0.19745537 10:-0.023038871 11:-0.050057358 12:-0.14235739 13:-0.30867909 14:1.0150326 15:0.26724111 16:-0.0018767726 17:0.018504498 18:-0.020928818 19:-0.41698039 20:-0.14105988 21:0.1450846 22:-0.01406244 23:0.026986259 24:-0.02227933 25:0.06028617 26:-0.41885464 27:-0.086895459 28:0.0051692678 29:-0.0072320036 30:-0.012482485 31:0.1367521 32:0.034423604 33:-0.01120865 34:0.0039336409 35:-0.0025963645 36:0.0076961693 
-4 1:-0.079804486 2:-0.37792613 3:0.098851753 4:-0.037623305 5:0.044240326 6:-0.068090272 7:0.40120424 8:2.2543168e-16 9:-0.17450961 10:-0.020361586 11:-0.044240326 12:-0.12581442 13:-0.30867909 14:1.0150326 15:0.26724111 16:-0.0018767726 17:0.018504498 18:-0.020928818 19:-0.41698039 20:-0.14105988 21:0.1450846 22:-0.01406244 23:0.026986259 24:-0.02227933 25:0.06028617 26:-0.41885464 27:-0.086895459 28:0.0051692678 29:-0.0072320036 30:-0.012482485 31:0.1367521 32:0.034423604 33:-0.01120865 34:0.0039336409 35:-0.0025963645 36:0.0076961693 
-4 1:-0.073338736 2:-0.3473066 3:0.090842796 4:-0.034575069 5:0.04065598 6:-0.062573606 7:0.36869872 8:2.0716723e-16 9:-0.16037086 10:-0.018711893 11:-0.04065598 12:-0.11562095 13:-0.30867909 14:1.0150326 15:0.26724111 16:-0.0018767726 17:0.018504498 18:-0.020928818 19:-0.41698039 20:-0.14105988 21:0.1450846 22:-0.01406244 23:0.026986259 24:-0.02227933 25:0.06028617 26:-0.41885464 27:-0.086895459 28:0.0051692678 29:-0.0072320036 30:-0.012482485 31:0.1367521 32:0.034423604 33:-0.01120865 34:0.0039336409 35:-0.0025963645 36:0.0076961693 
-4 1:-0.073172224 2:-0.34651806 3:0.090636542 4:-0.034496568 5:0.040563673 6:-0.062431536 7:0.36786161 8:2.0669687e-16 9:-0.16000675 10:-0.018669408 11:-0.040563673 12:-0.11535844 13:-0.30867909 14:1.0150326 15:0.26724111 16:-0.0018767726 17:0.018504498 18:-0.020928818 19:-0.41698039 20:-0.14105988 21:0.1450846 22:-0.01406244 23:0.026986259 24:-0.02227933 25:0.06028617 26:-0.41885464 27:-0.086895459 28:0.0051692678 29:-0.0072320036 30:-0.012482485 31:0.1367521 32:0.034423604 33:-0.01120865 34:0.0039336409 35:-0.0025963645 36:0.0076961693 
-4 1:-0.058010148 2:-0.27471577 3:0.07185567 4:-0.027348506 5:0.032158441 6:-0.049495047 7:0.29163671 8:1.6386704e-16 9:-0.12685162 10:-0.014800905 11:-0.032158441 12:-0.091454921 13:-0.30867909 14:1.0150326 15:0.26724111 16:-0.0018767726 17:0.018504498 18:-0.020928818 19:-0.41698039 20:-0.14105988 21:0.1450846 22:-0.01406244 23:0.026986259 24:-0.02227933 25:0.06028617 26:-0.41885464 27:-0.086895459 28:0.0051692678 29:-0.0072320036 30:-0.012482485 31:0.1367521 32:0.034423604 33:-0.01120865 34:0.0039336409 35:-0.0025963645 36:0.0076961693 
-1.516602030922528 1:-0.27439448 2:-0.49681278 3:0.2201434 4:-0.011906124 5:0.04034052 6:-0.030291118 7:0.24167504 8:0.19852841 9:-0.22698118 10:-0.0070029586 11:-0.083282238 12:-0.23558953 13:-0.30867909 14:1.0150326 15:0.26724111 16:-0.0018767726 17:0.018504498 18:-0.020928818 19:-0.41698039 20:-0.14105988 21:0.1450846 22:-0.01406244 23:0.026986259 24:-0.02227933 25:0.06028617 26:-0.41885464 27:-0.086895459 28:0.0051692678 29:-0.0072320036 30:-0.012482485 31:0.1367521 32:0.034423604 33:-0.01120865 34:0.0039336409 35:-0.0025963645 36:0.0076961693 
-4 1:-0.52309291 2:-0.10355313 3:0.28692328 4:0.099675798 5:-0.045640646 6:0.13205628 7:-0.75124832 8:0.68706245 9:-0.06732171 10:0.062819297 11:-0.10297104 12:-0.2440082 13:-0.30867909 14:1.0150326 15:0.26724111 16:-0.0018767726 17:0.018504498 18:-0.020928818 19:-0.41698039 20:-0.14105988 21:0.1450846 22:-0.01406244 23:0.026986259 24:-0.02227933 25:0.06028617 26:-0.41885464 27:-0.086895459 28:0.0051692678 29:-0.0072320036 30:-0.012482485 31:0.1367521 32:0.034423604 33:-0.01120865 34:0.0039336409 35:-0.0025963645 36:0.0076961693 
-4 1:-0.52135372 2:-0.10320884 3:0.28596932 4:0.099344395 5:-0.045488899 6:0.13161722 7:-0.74875056 8:0.68477809 9:-0.067097877 10:0.062610434 11:-0.10262868 12:-0.24319691 13:-0.30867909 14:1.0150326 15:0.26724111 16:-0.0018767726 17:0.018504498 18:-0.020928818 19:-0.41698039 20:-0.14105988 21:0.1450846 22:-0.01406244 23:0.026986259 24:-0.02227933 25:0.06028617 26:-0.41885464 27:-0.086895459 28:0.0051692678 29:-0.0072320036 30:-0.012482485 31:0.1367521 32:0.034423604 33:-0.01120865 34:0.0039336409 35:-0.0025963645 36:0.0076961693 
-4 1:-0.058703376 2:-0.27799866 3:0.072714355 4:-0.027675324 5:0.032542739 6:-0.050086519 7:0.2951218 8:1.6582527e-16 9:-0.12836751 10:-0.014977778 11:-0.032542739 12:-0.092547819 13:-0.30867909 14:1.0150326 15:0.26724111 16:-0.0018767726 17:0.018504498 18:-0.020928818 19:-0.41698039 20:-0.14105988 21:0.1450846 22:-0.01406244 23:0.026986259 24:-0.02227933 25:0.06028617 26:-0.41885464 27:-0.086895459 28:0.0051692678 29:-0.0072320036 30:-0.012482485 31:0.1367521 32:0.034423604 33:-0.01120865 34:0.0039336409 35:-0.0025963645 36:0.0076961693 
-4 1:-0.068043465 2:-0.32223005 3:0.08428368 4:-0.032078648 5:0.0377205 6:-0.058055609 7:0.3420776 8:1.9220915e-16 9:-0.14879162 10:-0.017360839 11:-0.0377205 12:-0.10727278 13:-0.30867909 14:1.0150326 15:0.26724111 16:-0.0018767726 17:0.018504498 18:-0.020928818 19:-0.41698039 20:-0.14105988 21:0.1450846 22:-0.01406244 23:0.026986259 24:-0.02227933 25:0.06028617 26:-0.41885464 27:-0.086895459 28:0.0051692678 29:-0.0072320036 30:-0.012482485 31:0.1367521 32:0.034423604 33:-0.01120865 34:0.0039336409 35:-0.0025963645 36:0.0076961693 
-4 1:-0.082157951 2:-0.38907132 3:0.10176693 4:-0.038732831 5:0.045544991 6:-0.070098281 7:0.41303591 8:2.3207975e-16 9:-0.17965597 10:-0.020962057 11:-0.045544991 12:-0.12952473 13:-0.30867909 14:1.0150326 15:0.26724111 16:-0.0018767726 17:0.018504498 18:-0.020928818 19:-0.41698039 20:-0.14105988 21:0.1450846 22:-0.01406244 23:0.026986259 24:-0.02227933 25:0.06028617 26:-0.41885464 27:-0.086895459 28:0.0051692678 29:-0.0072320036 30:-0.012482485 31:0.1367521 32:0.034423604 33:-0.01120865 34:0.0039336409 35:-0.0025963645 36:0.0076961693 
-4 1:-0.045928773 2:-0.21750261 3:0.056890784 4:-0.021652821 5:0.025461024 6:-0.039187054 7:0.23089954 8:1.2973958e-16 9:-0.10043311 10:-0.011718422 11:-0.025461024 12:-0.072408234 13:-0.30867909 14:1.0150326 15:0.26724111 16:-0.0018767726 17:0.018504498 18:-0.020928818 19:-0.41698039 20:-0.14105988 21:0.1450846 22:-0.01406244 23:0.026986259 24:-0.02227933 25:0.06028617 26:-0.41885464 27:-0.086895459 28:0.0051692678 29:-0.0072320036 30:-0.012482485 31:0.1367521 32:0.034423604 33:-0.01120865 34:0.0039336409 35:-0.0025963645 36:0.0076961693 
-4 1:-0.047403496 2:-0.22448638 3:0.058717485 4:-0.02234807 5:0.02627855 6:-0.040445307 7:0.23831347 8:1.3390538e-16 9:-0.1036579 10:-0.012094688 11:-0.02627855 12:-0.074733183 13:-0.30867909 14:1.0150326 15:0.26724111 16:-0.0018767726 17:0.018504498 18:-0.020928818 19:-0.41698039 20:-0.14105988 21:0.1450846 22:-0.01406244 23:0.026986259 24:-0.02227933 25:0.06028617 26:-0.41885464 27:-0.086895459 28:0.0051692678 29:-0.0072320036 30:-0.012482485 31:0.1367521 32:0.034423604 33:-0.01120865 34:0.0039336409 35:-0.0025963645 36:0.0076961693 
-4 1:-0.053729129 2:-0.25444236 3:0.066552883 4:-0.025330248 5:0.02978522 6:-0.045842423 7:0.27011457 8:1.5177402e-16 9:-0.11749025 10:-0.013708631 11:-0.02978522 12:-0.084705753 13:-0.30867909 14:1.0150326 15:0.26724111 16:-0.0018767726 17:0.018504498 18:-0.020928818 19:-0.41698039 20:-0.14105988 21:0.1450846 22:-0.01406244 23:0.026986259 24:-0.02227933 25:0.06028617 26:-0.41885464 27:-0.086895459 28:0.0051692678 29:-0.0072320036 30:-0.012482485 31:0.1367521 32:0.034423604 33:-0.01120865 34:0.0039336409 35:-0.0025963645 36:0.0076961693 
-4 1:-0.054641467 2:-0.25876288 3:0.067682972 4:-0.025760364 5:0.030290983 6:-0.046620842 7:0.2747012 8:1.5435119e-16 9:-0.11948528 10:-0.013941408 11:-0.030290983 12:-0.086144084 13:-0.30867909 14:1.0150326 15:0.26724111 16:-0.0018767726 17:0.018504498 18:-0.020928818 19:-0.41698039 20:-0.14105988 21:0.1450846 22:-0.01406244 23:0.026986259 24:-0.02227933 25:0.06028617 26:-0.41885464 27:-0.086895459 28:0.0051692678 29:-0.0072320036 30:-0.012482485 31:0.1367521 32:0.034423604 33:-0.01120865 34:0.0039336409 35:-0.0025963645 36:0.0076961693 
-4 1:-0.15736579 2:-0.41232276 3:0.14429139 4:-0.025621984 5:0.040165496 6:-0.053149618 7:0.31693735 8:0.096361863 9:-0.19312813 10:-0.012621762 11:-0.061008578 12:-0.16665295 13:-0.30867909 14:1.0150326 15:0.26724111 16:-0.0018767726 17:0.018504498 18:-0.020928818 19:-0.41698039 20:-0.14105988 21:0.1450846 22:-0.01406244 23:0.026986259 24:-0.02227933 25:0.06028617 26:-0.41885464 27:-0.086895459 28:0.0051692678 29:-0.0072320036 30:-0.012482485 31:0.1367521 32:0.034423604 33:-0.01120865 34:0.0039336409 35:-0.0025963645 36:0.0076961693 
-4 1:-0.08139615 2:-0.3854637 3:0.10082331 4:-0.038373685 5:0.04512268 6:-0.069448302 7:0.40920608 8:2.2992781e-16 9:-0.17799013 10:-0.020767689 11:-0.04512268 12:-0.12832373 13:-0.30867909 14:1.0150326 15:0.26724111 16:-0.0018767726 17:0.018504498 18:-0.020928818 19:-0.41698039 20:-0.14105988 21:0.1450846 22:-0.01406244 23:0.026986259 24:-0.02227933 25:0.06028617 26:-0.41885464 27:-0.086895459 28:0.0051692678 29:-0.0072320036 30:-0.012482485 31:0.1367521 32:0.034423604 33:-0.01120865 34:0.0039336409 35:-0.0025963645 36:0.0076961693 
-4 1:-0.065364005 2:-0.30954107 3:0.080964703 4:-0.030815434 5:0.036235117 6:-0.055769457 7:0.32860704 8:1.8464021e-16 9:-0.1429324 10:-0.016677193 11:-0.036235117 12:-0.10304852 13:-0.30867909 14:1.0150326 15:0.26724111 16:-0.0018767726 17:0.018504498 18:-0.020928818 19:-0.41698039 20:-0.14105988 21:0.1450846 22:-0.01406244 23:0.026986259 24:-0.02227933 25:0.06028617 26:-0.41885464 27:-0.086895459 28:0.0051692678 29:-0.0072320036 30:-0.012482485 31:0.1367521 32:0.034423604 33:-0.01120865 34:0.0039336409 35:-0.0025963645 36:0.0076961693 
-4 1:-0.072432292 2:-0.343014 3:0.089720008 4:-0.034147732 5:0.040153485 6:-0.061800216 7:0.36414172 8:2.0460671e-16 9:-0.15838873 10:-0.01848062 11:-0.040153485 12:-0.11419191 13:-0.30867909 14:1.0150326 15:0.26724111 16:-0.0018767726 17:0.018504498 18:-0.020928818 19:-0.41698039 20:-0.14105988 21:0.1450846 22:-0.01406244 23:0.026986259 24:-0.02227933 25:0.06028617 26:-0.41885464 27:-0.086895459 28:0.0051692678 29:-0.0072320036 30:-0.012482485 31:0.1367521 32:0.034423604 33:-0.01120865 34:0.0039336409 35:-0.0025963645 36:0.0076961693 
-4 1:-0.20129671 2:-0.55239531 3:0.1973276 4:-0.03502663 5:0.061493126 6:-0.04237413 7:0.46194668 8:-0.013708148 9:-0.22373538 10:-0.031126163 11:-0.058528052 12:-0.21676775 13:-0.30867909 14:1.0150326 15:0.26724111 16:-0.0018767726 17:0.018504498 18:-0.020928818 19:-0.41698039 20:-0.14105988 21:0.1450846 22:-0.01406244 23:0.026986259 24:-0.02227933 25:0.06028617 26:-0.41885464 27:-0.086895459 28:0.0051692678 29:-0.0072320036 30:-0.012482485 31:0.1367521 32:0.034423604 33:-0.01120865 34:0.0039336409 35:-0.0025963645 36:0.0076961693 
-4 1:-0.070355782 2:-0.33318038 3:0.087147889 4:-0.033168775 5:0.039002354 6:-0.06002851 7:0.3537024 8:1.9874098e-16 9:-0.153848 10:-0.017950812 11:-0.039002354 12:-0.11091822 13:-0.30867909 14:1.0150326 15:0.26724111 16:-0.0018767726 17:0.018504498 18:-0.020928818 19:-0.41698039 20:-0.14105988 21:0.1450846 22:-0.01406244 23:0.026986259 24:-0.02227933 25:0.06028617 26:-0.41885464 27:-0.086895459 28:0.0051692678 29:-0.0072320036 30:-0.012482485 31:0.1367521 32:0.034423604 33:-0.01120865 34:0.0039336409 35:-0.0025963645 36:0.0076961693 
-4 1:-0.51473921 2:-0.10189941 3:0.28234117 4:0.098083993 5:-0.044911772 6:0.12994737 7:-0.73925102 8:0.67609018 9:-0.066246594 10:0.061816084 11:-0.10132661 12:-0.24011143 13:-0.30867909 14:1.0150326 15:0.26724111 16:-0.0018767726 17:0.018504498 18:-0.020928818 19:-0.41698039 20:-0.14105988 21:0.1450846 22:-0.01406244 23:0.026986259 24:-0.02227933 25:0.06028617 26:-0.41885464 27:-0.086895459 28:0.0051692678 29:-0.0072320036 30:-0.012482485 31:0.1367521 32:0.034423604 33:-0.01120865 34:0.0039336409 35:-0.0025963645 36:0.0076961693 
-4 1:-0.50598034 2:-0.10016548 3:0.27753681 4:0.096414983 5:-0.044147548 6:0.12773617 7:-0.72667183 8:0.66458574 9:-0.065119333 10:0.060764213 11:-0.099602421 12:-0.23602566 13:-0.30867909 14:1.0150326 15:0.26724111 16:-0.0018767726 17:0.018504498 18:-0.020928818 19:-0.41698039 20:-0.14105988 21:0.1450846 22:-0.01406244 23:0.026986259 24:-0.02227933 25:0.06028617 26:-0.41885464 27:-0.086895459 28:0.0051692678 29:-0.0072320036 30:-0.012482485 31:0.1367521 32:0.034423604 33:-0.01120865 34:0.0039336409 35:-0.0025963645 36:0.0076961693 
-4 1:-0.50550813 2:-0.100072 3:0.2772778 4:0.096325003 5:-0.044106347 6:0.12761696 7:-0.72599366 8:0.66396551 9:-0.06505856 10:0.060707505 11:-0.099509467 12:-0.23580539 13:-0.30867909 14:1.0150326 15:0.26724111 16:-0.0018767726 17:0.018504498 18:-0.020928818 19:-0.41698039 20:-0.14105988 21:0.1450846 22:-0.01406244 23:0.026986259 24:-0.02227933 25:0.06028617 26:-0.41885464 27:-0.086895459 28:0.0051692678 29:-0.0072320036 30:-0.012482485 31:0.1367521 32:0.034423604 33:-0.01120865 34:0.0039336409 35:-0.0025963645 36:0.0076961693 
-4 1:-0.070742772 2:-0.33501302 3:0.087627243 4:-0.033351219 5:0.039216885 6:-0.060358694 7:0.35564793 8:1.9983415e-16 9:-0.15469423 10:-0.01804955 11:-0.039216885 12:-0.11152832 13:-0.30867909 14:1.0150326 15:0.26724111 16:-0.0018767726 17:0.018504498 18:-0.020928818 19:-0.41698039 20:-0.14105988 21:0.1450846 22:-0.01406244 23:0.026986259 24:-0.02227933 25:0.06028617 26:-0.41885464 27:-0.086895459 28:0.0051692678 29:-0.0072320036 30:-0.012482485 31:0.1367521 32:0.034423604 33:-0.01120865 34:0.0039336409 35:-0.0025963645 36:0.0076961693 
-4 1:-0.10184315 2:-0.48229353 3:0.12615047 4:-0.048013288 5:0.056457654 6:-0.086893958 7:0.51200008 8:2.8768648e-16 9:-0.22270187 10:-0.025984604 11:-0.056457654 12:-0.1605591 13:-0.30867909 14:1.0150326 15:0.26724111 16:-0.0018767726 17:0.018504498 18:-0.020928818 19:-0.41698039 20:-0.14105988 21:0.1450846 22:-0.01406244 23:0.026986259 24:-0.02227933 25:0.06028617 26:-0.41885464 27:-0.086895459 28:0.0051692678 29:-0.0072320036 30:-0.012482485 31:0.1367521 32:0.034423604 33:-0.01120865 34:0.0039336409 35:-0.0025963645 36:0.0076961693 
-4 1:-0.09069194 2:-0.42948531 3:0.11233776 4:-0.042756124 5:0.050275884 6:-0.077379596 7:0.45593917 8:2.5618655e-16 9:-0.19831736 10:-0.023139448 11:-0.050275884 12:-0.14297885 13:-0.30867909 14:1.0150326 15:0.26724111 16:-0.0018767726 17:0.018504498 18:-0.020928818 19:-0.41698039 20:-0.14105988 21:0.1450846 22:-0.01406244 23:0.026986259 24:-0.02227933 25:0.06028617 26:-0.41885464 27:-0.086895459 28:0.0051692678 29:-0.0072320036 30:-0.012482485 31:0.1367521 32:0.034423604 33:-0.01120865 34:0.0039336409 35:-0.0025963645 36:0.0076961693 
-4 1:-0.11764867 2:-0.55714297 3:0.14572837 4:-0.055464701 5:0.065219589 6:-0.10037945 7:0.59145982 8:3.3233392e-16 9:-0.25726404 10:-0.03001728 11:-0.065219589 12:-0.18547703 13:-0.30867909 14:1.0150326 15:0.26724111 16:-0.0018767726 17:0.018504498 18:-0.020928818 19:-0.41698039 20:-0.14105988 21:0.1450846 22:-0.01406244 23:0.026986259 24:-0.02227933 25:0.06028617 26:-0.41885464 27:-0.086895459 28:0.0051692678 29:-0.0072320036 30:-0.012482485 31:0.1367521 32:0.034423604 33:-0.01120865 34:0.0039336409 35:-0.0025963645 36:0.0076961693 
